<?xml version="1.0" encoding="UTF-8" standalone="yes"?>
<PMML xmlns="http://www.dmg.org/PMML-4_3" xmlns:data="http://jpmml.org/jpmml-model/InlineTable" version="4.3">
	<Header>
		<Application name="JPMML-SparkML" version="1.5.0"/>
		<Timestamp>2019-11-26T22:31:23Z</Timestamp>
	</Header>
	<DataDictionary>
		<DataField name="open" optype="continuous" dataType="double"/>
		<DataField name="high" optype="continuous" dataType="double"/>
		<DataField name="low" optype="continuous" dataType="double"/>
		<DataField name="last" optype="continuous" dataType="double"/>
		<DataField name="aj_dif" optype="continuous" dataType="double"/>
		<DataField name="ol_vol" optype="continuous" dataType="integer"/>
		<DataField name="ol_dif" optype="continuous" dataType="integer"/>
		<DataField name="vol_ope" optype="continuous" dataType="integer"/>
		<DataField name="dolar_bn" optype="continuous" dataType="double"/>
		<DataField name="dolar_itau" optype="continuous" dataType="double"/>
		<DataField name="dif_sem" optype="continuous" dataType="double"/>
		<DataField name="cierre" optype="continuous" dataType="double">
			<Value value="169.0"/>
			<Value value="168.0"/>
			<Value value="320.0"/>
			<Value value="165.0"/>
			<Value value="265.0"/>
			<Value value="235.0"/>
			<Value value="318.0"/>
			<Value value="170.0"/>
			<Value value="228.0"/>
			<Value value="173.0"/>
			<Value value="167.0"/>
			<Value value="230.0"/>
			<Value value="233.0"/>
			<Value value="255.0"/>
			<Value value="340.0"/>
			<Value value="321.0"/>
			<Value value="270.0"/>
			<Value value="298.0"/>
			<Value value="195.0"/>
			<Value value="324.0"/>
			<Value value="291.0"/>
			<Value value="280.0"/>
			<Value value="227.0"/>
			<Value value="314.0"/>
			<Value value="305.0"/>
			<Value value="232.0"/>
			<Value value="257.0"/>
			<Value value="234.0"/>
			<Value value="322.0"/>
			<Value value="162.0"/>
			<Value value="225.0"/>
			<Value value="176.0"/>
			<Value value="177.0"/>
			<Value value="171.0"/>
			<Value value="240.0"/>
			<Value value="172.0"/>
			<Value value="254.0"/>
			<Value value="264.0"/>
			<Value value="283.0"/>
			<Value value="175.0"/>
			<Value value="312.0"/>
			<Value value="269.0"/>
			<Value value="163.0"/>
			<Value value="326.0"/>
			<Value value="224.0"/>
			<Value value="260.0"/>
			<Value value="226.0"/>
			<Value value="325.0"/>
			<Value value="259.0"/>
			<Value value="166.0"/>
			<Value value="206.0"/>
			<Value value="180.0"/>
			<Value value="327.0"/>
			<Value value="285.0"/>
			<Value value="350.0"/>
			<Value value="272.0"/>
			<Value value="218.0"/>
			<Value value="261.0"/>
			<Value value="207.0"/>
			<Value value="271.0"/>
			<Value value="220.0"/>
			<Value value="219.0"/>
			<Value value="190.0"/>
			<Value value="241.0"/>
			<Value value="252.0"/>
			<Value value="203.0"/>
			<Value value="182.0"/>
			<Value value="347.0"/>
			<Value value="262.0"/>
			<Value value="253.0"/>
			<Value value="267.0"/>
			<Value value="336.0"/>
			<Value value="317.0"/>
			<Value value="222.0"/>
			<Value value="339.0"/>
			<Value value="287.0"/>
			<Value value="215.0"/>
			<Value value="158.0"/>
			<Value value="288.0"/>
			<Value value="276.0"/>
			<Value value="193.0"/>
			<Value value="309.0"/>
			<Value value="315.0"/>
			<Value value="236.0"/>
			<Value value="199.0"/>
			<Value value="330.0"/>
			<Value value="178.0"/>
			<Value value="308.0"/>
			<Value value="323.0"/>
			<Value value="343.0"/>
			<Value value="231.0"/>
			<Value value="345.0"/>
			<Value value="263.0"/>
			<Value value="279.0"/>
			<Value value="331.0"/>
			<Value value="274.0"/>
			<Value value="328.0"/>
			<Value value="214.0"/>
			<Value value="293.0"/>
			<Value value="307.0"/>
			<Value value="243.0"/>
			<Value value="300.0"/>
			<Value value="200.0"/>
			<Value value="196.0"/>
			<Value value="174.0"/>
			<Value value="193.5"/>
			<Value value="202.0"/>
			<Value value="338.0"/>
			<Value value="237.0"/>
			<Value value="316.0"/>
			<Value value="290.0"/>
			<Value value="238.0"/>
			<Value value="278.0"/>
			<Value value="273.0"/>
			<Value value="258.0"/>
			<Value value="289.0"/>
			<Value value="221.0"/>
			<Value value="337.0"/>
			<Value value="239.0"/>
			<Value value="352.0"/>
			<Value value="335.0"/>
			<Value value="282.0"/>
			<Value value="227.5"/>
			<Value value="188.0"/>
			<Value value="159.0"/>
			<Value value="161.0"/>
			<Value value="341.0"/>
			<Value value="355.0"/>
			<Value value="192.0"/>
			<Value value="170.5"/>
			<Value value="270.5"/>
			<Value value="297.0"/>
			<Value value="275.0"/>
			<Value value="198.0"/>
			<Value value="179.0"/>
			<Value value="205.0"/>
			<Value value="213.0"/>
			<Value value="223.0"/>
			<Value value="302.0"/>
			<Value value="229.0"/>
			<Value value="164.0"/>
			<Value value="310.0"/>
			<Value value="354.0"/>
			<Value value="191.0"/>
			<Value value="284.0"/>
			<Value value="299.0"/>
			<Value value="361.0"/>
			<Value value="216.0"/>
			<Value value="157.0"/>
			<Value value="192.5"/>
			<Value value="217.0"/>
			<Value value="230.5"/>
			<Value value="304.0"/>
			<Value value="156.0"/>
			<Value value="313.0"/>
			<Value value="256.0"/>
			<Value value="295.0"/>
			<Value value="292.0"/>
			<Value value="334.0"/>
			<Value value="265.5"/>
			<Value value="245.0"/>
			<Value value="277.0"/>
			<Value value="168.5"/>
			<Value value="249.0"/>
			<Value value="306.0"/>
			<Value value="169.5"/>
			<Value value="264.5"/>
			<Value value="212.0"/>
			<Value value="186.0"/>
			<Value value="252.5"/>
			<Value value="164.5"/>
			<Value value="204.0"/>
			<Value value="208.0"/>
			<Value value="348.0"/>
			<Value value="197.0"/>
			<Value value="369.0"/>
			<Value value="201.0"/>
			<Value value="185.0"/>
			<Value value="266.0"/>
			<Value value="231.5"/>
			<Value value="171.5"/>
			<Value value="301.0"/>
			<Value value="303.0"/>
			<Value value="344.0"/>
			<Value value="160.0"/>
			<Value value="286.0"/>
			<Value value="329.0"/>
			<Value value="311.0"/>
			<Value value="251.0"/>
			<Value value="351.0"/>
			<Value value="332.0"/>
			<Value value="273.5"/>
			<Value value="154.0"/>
			<Value value="281.0"/>
			<Value value="333.0"/>
			<Value value="289.5"/>
			<Value value="378.0"/>
			<Value value="155.0"/>
			<Value value="194.0"/>
			<Value value="189.0"/>
			<Value value="166.5"/>
			<Value value="356.0"/>
			<Value value="342.0"/>
			<Value value="346.0"/>
			<Value value="268.0"/>
			<Value value="250.0"/>
			<Value value="187.0"/>
			<Value value="210.0"/>
			<Value value="407.0"/>
			<Value value="258.5"/>
			<Value value="278.5"/>
			<Value value="174.5"/>
			<Value value="228.5"/>
			<Value value="211.0"/>
			<Value value="363.0"/>
			<Value value="353.0"/>
			<Value value="296.0"/>
			<Value value="296.5"/>
			<Value value="360.0"/>
			<Value value="247.0"/>
			<Value value="415.0"/>
			<Value value="357.0"/>
			<Value value="364.0"/>
			<Value value="172.5"/>
			<Value value="365.0"/>
			<Value value="242.0"/>
			<Value value="422.0"/>
			<Value value="294.5"/>
			<Value value="253.5"/>
			<Value value="395.0"/>
			<Value value="158.5"/>
			<Value value="307.5"/>
			<Value value="288.5"/>
			<Value value="367.0"/>
			<Value value="148.0"/>
			<Value value="162.5"/>
			<Value value="175.5"/>
			<Value value="349.0"/>
			<Value value="347.5"/>
			<Value value="319.0"/>
			<Value value="167.5"/>
			<Value value="400.0"/>
			<Value value="229.5"/>
			<Value value="358.0"/>
			<Value value="232.5"/>
			<Value value="293.5"/>
			<Value value="274.5"/>
			<Value value="153.0"/>
			<Value value="313.5"/>
			<Value value="173.5"/>
			<Value value="268.5"/>
			<Value value="184.0"/>
			<Value value="157.5"/>
			<Value value="408.0"/>
			<Value value="177.5"/>
			<Value value="194.5"/>
			<Value value="292.5"/>
			<Value value="388.0"/>
			<Value value="299.5"/>
			<Value value="349.5"/>
			<Value value="383.0"/>
			<Value value="382.0"/>
			<Value value="271.5"/>
			<Value value="183.0"/>
			<Value value="151.0"/>
			<Value value="225.5"/>
			<Value value="248.0"/>
			<Value value="316.5"/>
			<Value value="321.5"/>
			<Value value="235.5"/>
			<Value value="331.5"/>
			<Value value="236.5"/>
			<Value value="226.5"/>
			<Value value="329.5"/>
			<Value value="338.5"/>
			<Value value="405.0"/>
			<Value value="325.5"/>
			<Value value="324.5"/>
			<Value value="238.5"/>
			<Value value="366.0"/>
			<Value value="163.5"/>
			<Value value="214.5"/>
			<Value value="209.5"/>
			<Value value="403.0"/>
			<Value value="244.0"/>
			<Value value="282.5"/>
			<Value value="437.0"/>
			<Value value="290.5"/>
			<Value value="346.5"/>
			<Value value="370.0"/>
			<Value value="257.5"/>
			<Value value="420.6000061035156"/>
			<Value value="396.0"/>
			<Value value="286.5"/>
			<Value value="197.5"/>
			<Value value="380.0"/>
			<Value value="368.0"/>
			<Value value="404.5"/>
			<Value value="285.5"/>
			<Value value="246.0"/>
			<Value value="221.5"/>
			<Value value="159.5"/>
			<Value value="185.5"/>
			<Value value="416.0"/>
			<Value value="266.5"/>
			<Value value="272.5"/>
			<Value value="404.0"/>
			<Value value="393.0"/>
			<Value value="390.0"/>
			<Value value="291.5"/>
			<Value value="418.70001220703125"/>
			<Value value="337.5"/>
			<Value value="233.5"/>
			<Value value="339.1000061035156"/>
			<Value value="250.5"/>
			<Value value="261.5"/>
			<Value value="251.5"/>
			<Value value="408.5"/>
			<Value value="315.5"/>
			<Value value="176.5"/>
			<Value value="414.0"/>
			<Value value="411.0"/>
			<Value value="412.0"/>
			<Value value="431.0"/>
			<Value value="385.0"/>
			<Value value="402.0"/>
			<Value value="187.5"/>
			<Value value="302.5"/>
			<Value value="336.5"/>
			<Value value="241.8000030517578"/>
			<Value value="149.0"/>
			<Value value="199.5"/>
			<Value value="190.5"/>
			<Value value="362.0"/>
			<Value value="277.5"/>
			<Value value="241.5"/>
			<Value value="217.5"/>
			<Value value="284.5"/>
			<Value value="330.5"/>
			<Value value="360.5"/>
			<Value value="226.8000030517578"/>
			<Value value="424.0"/>
			<Value value="371.0"/>
			<Value value="355.5"/>
			<Value value="267.20001220703125"/>
			<Value value="425.0"/>
			<Value value="401.0"/>
			<Value value="179.5"/>
			<Value value="196.5"/>
			<Value value="151.5"/>
			<Value value="409.5"/>
			<Value value="283.5"/>
			<Value value="394.5"/>
			<Value value="294.0"/>
			<Value value="397.0"/>
			<Value value="418.0"/>
			<Value value="269.5"/>
			<Value value="340.5"/>
			<Value value="200.5"/>
			<Value value="273.6000061035156"/>
			<Value value="361.5"/>
			<Value value="307.79998779296875"/>
			<Value value="289.8999938964844"/>
			<Value value="234.60000610351562"/>
			<Value value="251.39999389648438"/>
			<Value value="327.79998779296875"/>
			<Value value="429.5"/>
			<Value value="387.0"/>
			<Value value="226.3000030517578"/>
			<Value value="278.29998779296875"/>
			<Value value="426.0"/>
			<Value value="202.5"/>
			<Value value="212.5"/>
			<Value value="171.39999389648438"/>
			<Value value="239.5"/>
			<Value value="400.5"/>
			<Value value="344.5"/>
			<Value value="397.1000061035156"/>
			<Value value="413.0"/>
			<Value value="328.79998779296875"/>
			<Value value="329.20001220703125"/>
			<Value value="417.0"/>
			<Value value="408.79998779296875"/>
			<Value value="165.5"/>
			<Value value="198.5"/>
			<Value value="313.1000061035156"/>
			<Value value="384.5"/>
			<Value value="442.0"/>
			<Value value="310.5"/>
			<Value value="322.5"/>
			<Value value="224.5"/>
			<Value value="277.6000061035156"/>
			<Value value="220.5"/>
			<Value value="262.70001220703125"/>
			<Value value="249.8000030517578"/>
			<Value value="353.8999938964844"/>
			<Value value="439.5"/>
			<Value value="308.79998779296875"/>
			<Value value="399.0"/>
			<Value value="314.5"/>
			<Value value="354.70001220703125"/>
			<Value value="414.5"/>
			<Value value="307.8999938964844"/>
			<Value value="320.5"/>
			<Value value="352.5"/>
			<Value value="327.5"/>
			<Value value="150.0"/>
			<Value value="215.5"/>
			<Value value="263.79998779296875"/>
			<Value value="237.5"/>
			<Value value="230.1999969482422"/>
			<Value value="263.5"/>
			<Value value="216.8000030517578"/>
			<Value value="375.5"/>
			<Value value="237.1999969482422"/>
			<Value value="304.70001220703125"/>
			<Value value="285.6000061035156"/>
			<Value value="406.79998779296875"/>
			<Value value="269.20001220703125"/>
			<Value value="351.70001220703125"/>
			<Value value="309.5"/>
			<Value value="303.8999938964844"/>
			<Value value="202.1999969482422"/>
			<Value value="356.5"/>
			<Value value="321.3999938964844"/>
			<Value value="186.5"/>
			<Value value="199.3000030517578"/>
			<Value value="297.20001220703125"/>
			<Value value="297.70001220703125"/>
			<Value value="265.20001220703125"/>
			<Value value="294.70001220703125"/>
			<Value value="334.5"/>
			<Value value="344.20001220703125"/>
			<Value value="280.5"/>
			<Value value="283.1000061035156"/>
			<Value value="261.6000061035156"/>
			<Value value="171.10000610351562"/>
			<Value value="275.5"/>
			<Value value="393.5"/>
			<Value value="351.5"/>
			<Value value="359.0"/>
			<Value value="386.0"/>
			<Value value="407.5"/>
			<Value value="339.5"/>
			<Value value="429.0"/>
			<Value value="240.5"/>
			<Value value="298.79998779296875"/>
			<Value value="427.0"/>
			<Value value="308.5"/>
			<Value value="276.5"/>
			<Value value="435.0"/>
			<Value value="232.1999969482422"/>
			<Value value="304.5"/>
			<Value value="423.0"/>
			<Value value="243.1999969482422"/>
			<Value value="200.3000030517578"/>
			<Value value="341.5"/>
			<Value value="329.3999938964844"/>
			<Value value="417.6000061035156"/>
			<Value value="345.20001220703125"/>
			<Value value="243.6999969482422"/>
			<Value value="234.5"/>
			<Value value="390.5"/>
			<Value value="312.5"/>
			<Value value="192.1999969482422"/>
			<Value value="300.5"/>
			<Value value="195.5"/>
			<Value value="152.5"/>
			<Value value="325.20001220703125"/>
			<Value value="189.5"/>
			<Value value="394.0"/>
			<Value value="419.0"/>
			<Value value="207.5"/>
			<Value value="270.79998779296875"/>
			<Value value="294.79998779296875"/>
			<Value value="311.5"/>
			<Value value="343.79998779296875"/>
			<Value value="320.8999938964844"/>
			<Value value="439.0"/>
			<Value value="376.0"/>
			<Value value="350.5"/>
			<Value value="334.6000061035156"/>
			<Value value="161.5"/>
			<Value value="370.5"/>
			<Value value="151.8000030517578"/>
			<Value value="267.5"/>
			<Value value="255.5"/>
			<Value value="231.8000030517578"/>
			<Value value="181.0"/>
			<Value value="328.20001220703125"/>
			<Value value="409.79998779296875"/>
			<Value value="325.3999938964844"/>
			<Value value="295.8999938964844"/>
			<Value value="160.5"/>
			<Value value="333.5"/>
			<Value value="178.5"/>
			<Value value="414.6000061035156"/>
			<Value value="438.6000061035156"/>
			<Value value="274.79998779296875"/>
			<Value value="291.70001220703125"/>
			<Value value="381.5"/>
			<Value value="406.0"/>
			<Value value="154.5"/>
			<Value value="338.6000061035156"/>
			<Value value="319.20001220703125"/>
			<Value value="409.0"/>
			<Value value="438.0"/>
			<Value value="213.5"/>
			<Value value="322.6000061035156"/>
			<Value value="276.79998779296875"/>
			<Value value="147.0"/>
			<Value value="173.6999969482422"/>
			<Value value="167.6999969482422"/>
			<Value value="364.79998779296875"/>
			<Value value="391.0"/>
			<Value value="382.5"/>
			<Value value="281.79998779296875"/>
			<Value value="328.5"/>
			<Value value="319.5"/>
			<Value value="255.8000030517578"/>
			<Value value="270.29998779296875"/>
			<Value value="389.0"/>
			<Value value="246.3000030517578"/>
			<Value value="401.5"/>
			<Value value="305.20001220703125"/>
			<Value value="156.5"/>
			<Value value="342.5"/>
			<Value value="271.8999938964844"/>
			<Value value="345.8999938964844"/>
			<Value value="223.5"/>
			<Value value="281.5"/>
			<Value value="202.6999969482422"/>
			<Value value="273.29998779296875"/>
			<Value value="326.6000061035156"/>
			<Value value="312.3999938964844"/>
			<Value value="335.29998779296875"/>
			<Value value="155.5"/>
			<Value value="223.8000030517578"/>
			<Value value="333.3999938964844"/>
			<Value value="377.5"/>
			<Value value="367.70001220703125"/>
			<Value value="378.5"/>
			<Value value="287.5"/>
			<Value value="323.5"/>
			<Value value="384.0"/>
			<Value value="295.5"/>
			<Value value="331.29998779296875"/>
			<Value value="219.5"/>
			<Value value="248.8000030517578"/>
			<Value value="152.0"/>
			<Value value="297.8999938964844"/>
			<Value value="324.79998779296875"/>
			<Value value="263.29998779296875"/>
			<Value value="224.8000030517578"/>
			<Value value="248.3000030517578"/>
			<Value value="371.5"/>
			<Value value="285.29998779296875"/>
			<Value value="146.0"/>
			<Value value="362.5"/>
			<Value value="438.5"/>
			<Value value="337.6000061035156"/>
			<Value value="300.79998779296875"/>
			<Value value="350.6000061035156"/>
			<Value value="349.79998779296875"/>
			<Value value="238.1999969482422"/>
			<Value value="257.29998779296875"/>
			<Value value="260.5"/>
			<Value value="167.60000610351562"/>
			<Value value="256.5"/>
			<Value value="309.29998779296875"/>
			<Value value="348.5"/>
			<Value value="292.20001220703125"/>
			<Value value="421.0"/>
			<Value value="175.89999389648438"/>
			<Value value="338.70001220703125"/>
		</DataField>
	</DataDictionary>
	<MiningModel functionName="regression">
		<MiningSchema>
			<MiningField name="cierre" usageType="target"/>
			<MiningField name="high"/>
			<MiningField name="last"/>
			<MiningField name="vol_ope"/>
			<MiningField name="dolar_bn"/>
			<MiningField name="dolar_itau"/>
			<MiningField name="open"/>
			<MiningField name="ol_vol"/>
			<MiningField name="low"/>
			<MiningField name="aj_dif"/>
			<MiningField name="ol_dif"/>
			<MiningField name="dif_sem"/>
		</MiningSchema>
		<Output>
			<OutputField name="prediction" optype="continuous" dataType="double" feature="predictedValue"/>
		</Output>
		<Segmentation multipleModelMethod="average">
			<Segment id="1">
				<True/>
				<TreeModel functionName="regression" missingValueStrategy="nullPrediction" noTrueChildStrategy="returnLastPrediction" splitCharacteristic="multiSplit">
					<MiningSchema>
						<MiningField name="open"/>
						<MiningField name="high"/>
						<MiningField name="aj_dif"/>
						<MiningField name="ol_vol"/>
						<MiningField name="ol_dif"/>
						<MiningField name="vol_ope"/>
						<MiningField name="dolar_bn"/>
						<MiningField name="dolar_itau"/>
						<MiningField name="dif_sem"/>
					</MiningSchema>
					<Node score="30.0">
						<True/>
						<Node score="344.65625">
							<SimplePredicate field="ol_dif" operator="lessOrEqual" value="50.0"/>
							<Node score="343.0">
								<SimplePredicate field="dif_sem" operator="lessOrEqual" value="-352.25"/>
								<Node score="395.0">
									<SimplePredicate field="dolar_bn" operator="lessOrEqual" value="4.586499929428101"/>
									<Node score="315.125">
										<SimplePredicate field="dif_sem" operator="lessOrEqual" value="-383.5"/>
										<Node score="306.0">
											<SimplePredicate field="dif_sem" operator="lessOrEqual" value="-399.5"/>
										</Node>
									</Node>
									<Node score="196.0">
										<SimplePredicate field="aj_dif" operator="lessOrEqual" value="9.050000190734863"/>
										<Node score="296.0">
											<SimplePredicate field="aj_dif" operator="lessOrEqual" value="6.150000095367432"/>
											<Node score="134.5">
												<SimplePredicate field="dolar_bn" operator="lessOrEqual" value="4.432499885559082"/>
												<Node score="237.2">
													<SimplePredicate field="dolar_bn" operator="lessOrEqual" value="4.01800012588501"/>
													<Node score="210.6">
														<SimplePredicate field="aj_dif" operator="lessOrEqual" value="3.049999952316284"/>
														<Node score="175.0">
															<SimplePredicate field="dif_sem" operator="lessOrEqual" value="-368.5"/>
														</Node>
													</Node>
												</Node>
												<Node score="146.0">
													<SimplePredicate field="dif_sem" operator="lessOrEqual" value="-355.75"/>
												</Node>
												<Node score="142.0">
													<SimplePredicate field="dolar_itau" operator="lessOrEqual" value="4.045500040054321"/>
												</Node>
											</Node>
											<Node score="260.0">
												<SimplePredicate field="ol_vol" operator="lessOrEqual" value="50.0"/>
												<Node score="215.0">
													<SimplePredicate field="dolar_itau" operator="lessOrEqual" value="4.493499994277954"/>
												</Node>
												<Node score="261.0">
													<SimplePredicate field="aj_dif" operator="lessOrEqual" value="-2.950000047683716"/>
												</Node>
											</Node>
											<Node score="196.0">
												<SimplePredicate field="dif_sem" operator="lessOrEqual" value="-368.5"/>
											</Node>
											<Node score="214.0">
												<SimplePredicate field="aj_dif" operator="lessOrEqual" value="0.05000000074505806"/>
											</Node>
										</Node>
										<Node score="146.0">
											<SimplePredicate field="aj_dif" operator="lessOrEqual" value="7.200000047683716"/>
										</Node>
										<Node score="218.0">
											<SimplePredicate field="ol_vol" operator="lessOrEqual" value="50.0"/>
											<Node score="175.0">
												<SimplePredicate field="dolar_bn" operator="lessOrEqual" value="3.1705000400543213"/>
											</Node>
										</Node>
									</Node>
									<Node score="222.0">
										<SimplePredicate field="dif_sem" operator="lessOrEqual" value="-361.25"/>
										<Node score="263.6666666666667">
											<SimplePredicate field="high" operator="lessOrEqual" value="80.0"/>
										</Node>
									</Node>
									<Node score="339.0">
										<SimplePredicate field="dif_sem" operator="lessOrEqual" value="-355.75"/>
									</Node>
								</Node>
								<Node score="149.0">
									<SimplePredicate field="aj_dif" operator="lessOrEqual" value="0.05000000074505806"/>
									<Node score="355.25">
										<SimplePredicate field="dif_sem" operator="lessOrEqual" value="-361.25"/>
										<Node score="393.57142857142856">
											<SimplePredicate field="dolar_itau" operator="lessOrEqual" value="4.666499853134155"/>
											<Node score="304.5">
												<SimplePredicate field="aj_dif" operator="lessOrEqual" value="-2.450000047683716"/>
												<Node score="359.5">
													<SimplePredicate field="dif_sem" operator="lessOrEqual" value="-418.8500061035156"/>
												</Node>
											</Node>
										</Node>
										<Node score="214.0">
											<SimplePredicate field="ol_dif" operator="lessOrEqual" value="-50.0"/>
										</Node>
										<Node score="304.9259259259259">
											<SimplePredicate field="dolar_bn" operator="lessOrEqual" value="4.97350001335144"/>
											<Node score="278.70588235294116">
												<SimplePredicate field="dolar_bn" operator="lessOrEqual" value="4.759999990463257"/>
											</Node>
										</Node>
									</Node>
									<Node score="146.0">
										<SimplePredicate field="dif_sem" operator="lessOrEqual" value="-355.75"/>
										<Node score="221.0">
											<SimplePredicate field="aj_dif" operator="lessOrEqual" value="-4.099999904632568"/>
										</Node>
									</Node>
								</Node>
								<Node score="423.0">
									<SimplePredicate field="aj_dif" operator="lessOrEqual" value="1.100000023841858"/>
									<Node score="521.0">
										<SimplePredicate field="dolar_bn" operator="lessOrEqual" value="4.667999982833862"/>
										<Node score="487.5">
											<SimplePredicate field="dif_sem" operator="lessOrEqual" value="-418.8500061035156"/>
										</Node>
									</Node>
									<Node score="253.0">
										<SimplePredicate field="dolar_itau" operator="lessOrEqual" value="4.9700000286102295"/>
										<Node score="303.0">
											<SimplePredicate field="dif_sem" operator="lessOrEqual" value="-408.25"/>
											<Node score="458.0">
												<SimplePredicate field="aj_dif" operator="lessOrEqual" value="0.6500000059604645"/>
											</Node>
											<Node score="359.3333333333333">
												<SimplePredicate field="dolar_bn" operator="lessOrEqual" value="4.870000123977661"/>
											</Node>
										</Node>
									</Node>
									<Node score="555.0">
										<SimplePredicate field="ol_vol" operator="lessOrEqual" value="50.0"/>
									</Node>
								</Node>
								<Node score="501.0">
									<SimplePredicate field="dolar_bn" operator="lessOrEqual" value="4.870000123977661"/>
									<Node score="325.0">
										<SimplePredicate field="dolar_itau" operator="lessOrEqual" value="4.758500099182129"/>
										<Node score="214.0">
											<SimplePredicate field="aj_dif" operator="lessOrEqual" value="6.150000095367432"/>
											<Node score="438.0">
												<SimplePredicate field="aj_dif" operator="lessOrEqual" value="4.599999904632568"/>
												<Node score="355.5">
													<SimplePredicate field="aj_dif" operator="lessOrEqual" value="4.049999952316284"/>
												</Node>
											</Node>
											<Node score="322.3333333333333">
												<SimplePredicate field="dolar_bn" operator="lessOrEqual" value="4.667999982833862"/>
											</Node>
										</Node>
										<Node score="422.5">
											<SimplePredicate field="aj_dif" operator="lessOrEqual" value="7.900000095367432"/>
										</Node>
									</Node>
									<Node score="490.0">
										<SimplePredicate field="dif_sem" operator="lessOrEqual" value="-408.25"/>
										<Node score="293.2857142857143">
											<SimplePredicate field="aj_dif" operator="lessOrEqual" value="4.049999952316284"/>
										</Node>
									</Node>
								</Node>
								<Node score="387.3333333333333">
									<SimplePredicate field="aj_dif" operator="lessOrEqual" value="3.049999952316284"/>
									<Node score="441.0">
										<SimplePredicate field="dif_sem" operator="lessOrEqual" value="-383.5"/>
									</Node>
									<Node score="224.0">
										<SimplePredicate field="aj_dif" operator="lessOrEqual" value="2.049999952316284"/>
										<Node score="289.0">
											<SimplePredicate field="ol_vol" operator="lessOrEqual" value="50.0"/>
										</Node>
									</Node>
								</Node>
								<Node score="127.0">
									<SimplePredicate field="aj_dif" operator="lessOrEqual" value="5.099999904632568"/>
									<Node score="296.0">
										<SimplePredicate field="dif_sem" operator="lessOrEqual" value="-361.25"/>
										<Node score="241.0">
											<SimplePredicate field="dif_sem" operator="lessOrEqual" value="-399.5"/>
										</Node>
									</Node>
								</Node>
								<Node score="225.5">
									<SimplePredicate field="dif_sem" operator="lessOrEqual" value="-355.75"/>
									<Node score="261.0">
										<SimplePredicate field="dif_sem" operator="lessOrEqual" value="-368.5"/>
									</Node>
								</Node>
							</Node>
							<Node score="390.0">
								<SimplePredicate field="dif_sem" operator="lessOrEqual" value="-154.75"/>
								<Node score="363.0">
									<SimplePredicate field="ol_dif" operator="lessOrEqual" value="-350.0"/>
									<Node score="279.3636363636364">
										<SimplePredicate field="dolar_itau" operator="lessOrEqual" value="8.617500305175781"/>
										<Node score="427.0">
											<SimplePredicate field="dolar_itau" operator="lessOrEqual" value="8.41700029373169"/>
											<Node score="142.8">
												<SimplePredicate field="dif_sem" operator="lessOrEqual" value="-330.75"/>
												<Node score="248.375">
													<SimplePredicate field="dif_sem" operator="lessOrEqual" value="-338.8500061035156"/>
													<Node score="526.0">
														<SimplePredicate field="ol_vol" operator="lessOrEqual" value="75150.0"/>
														<Node score="237.13333333333333">
															<SimplePredicate field="dif_sem" operator="lessOrEqual" value="-343.3999938964844"/>
														</Node>
													</Node>
													<Node score="96.4">
														<SimplePredicate field="ol_vol" operator="lessOrEqual" value="152200.0"/>
													</Node>
												</Node>
												<Node score="115.875">
													<SimplePredicate field="dolar_bn" operator="lessOrEqual" value="5.333499908447266"/>
													<Node score="190.0">
														<SimplePredicate field="dolar_bn" operator="lessOrEqual" value="5.203500032424927"/>
													</Node>
												</Node>
												<Node score="349.55555555555554">
													<SimplePredicate field="dolar_bn" operator="lessOrEqual" value="7.760500192642212"/>
												</Node>
											</Node>
											<Node score="233.625">
												<SimplePredicate field="dolar_itau" operator="lessOrEqual" value="8.124499797821045"/>
												<Node score="58.0">
													<SimplePredicate field="aj_dif" operator="lessOrEqual" value="-1.949999988079071"/>
													<Node score="98.5">
														<SimplePredicate field="ol_dif" operator="lessOrEqual" value="-5250.0"/>
													</Node>
												</Node>
												<Node score="106.36666666666666">
													<SimplePredicate field="ol_vol" operator="lessOrEqual" value="220500.0"/>
												</Node>
											</Node>
											<Node score="200.9">
												<SimplePredicate field="dolar_itau" operator="lessOrEqual" value="8.182499885559082"/>
												<Node score="330.44444444444446">
													<SimplePredicate field="dif_sem" operator="lessOrEqual" value="-309.75"/>
												</Node>
											</Node>
											<Node score="138.46875">
												<SimplePredicate field="aj_dif" operator="lessOrEqual" value="3.649999976158142"/>
											</Node>
										</Node>
										<Node score="499.0">
											<SimplePredicate field="ol_vol" operator="lessOrEqual" value="20750.0"/>
											<Node score="101.0">
												<SimplePredicate field="ol_vol" operator="lessOrEqual" value="20000.0"/>
											</Node>
											<Node score="550.0">
												<SimplePredicate field="dif_sem" operator="lessOrEqual" value="-297.1000061035156"/>
											</Node>
										</Node>
										<Node score="53.0">
											<SimplePredicate field="dolar_bn" operator="lessOrEqual" value="8.405499935150146"/>
											<Node score="287.0">
												<SimplePredicate field="ol_dif" operator="lessOrEqual" value="-2150.0"/>
												<Node score="498.0">
													<SimplePredicate field="aj_dif" operator="lessOrEqual" value="-1.949999988079071"/>
												</Node>
											</Node>
										</Node>
										<Node score="65.5">
											<SimplePredicate field="ol_dif" operator="lessOrEqual" value="-3950.0"/>
											<Node score="208.71428571428572">
												<SimplePredicate field="dif_sem" operator="lessOrEqual" value="-291.25"/>
											</Node>
										</Node>
										<Node score="216.58823529411765">
											<SimplePredicate field="aj_dif" operator="lessOrEqual" value="1.3499999642372131"/>
										</Node>
									</Node>
									<Node score="119.57894736842105">
										<SimplePredicate field="open" operator="lessOrEqual" value="80.0"/>
										<Node score="22.0">
											<SimplePredicate field="dolar_itau" operator="lessOrEqual" value="9.308500289916992"/>
											<Node score="85.32142857142857">
												<SimplePredicate field="dolar_itau" operator="lessOrEqual" value="9.153500080108643"/>
												<Node score="148.75">
													<SimplePredicate field="dif_sem" operator="lessOrEqual" value="-275.75"/>
													<Node score="79.0">
														<SimplePredicate field="ol_vol" operator="lessOrEqual" value="37850.0"/>
													</Node>
												</Node>
												<Node score="45.55555555555556">
													<SimplePredicate field="dolar_bn" operator="lessOrEqual" value="8.767000198364258"/>
												</Node>
											</Node>
											<Node score="10.0">
												<SimplePredicate field="dif_sem" operator="lessOrEqual" value="-227.75"/>
												<Node score="17.642857142857142">
													<SimplePredicate field="aj_dif" operator="lessOrEqual" value="4.599999904632568"/>
												</Node>
											</Node>
											<Node score="60.57142857142857">
												<SimplePredicate field="ol_vol" operator="lessOrEqual" value="171200.0"/>
											</Node>
										</Node>
										<Node score="264.5">
											<SimplePredicate field="dolar_itau" operator="lessOrEqual" value="9.722500324249268"/>
											<Node score="272.1">
												<SimplePredicate field="ol_vol" operator="lessOrEqual" value="79950.0"/>
												<Node score="55.333333333333336">
													<SimplePredicate field="aj_dif" operator="lessOrEqual" value="-3.450000047683716"/>
												</Node>
											</Node>
											<Node score="44.785714285714285">
												<SimplePredicate field="aj_dif" operator="lessOrEqual" value="1.100000023841858"/>
											</Node>
										</Node>
										<Node score="11.0">
											<SimplePredicate field="ol_vol" operator="lessOrEqual" value="69900.0"/>
											<Node score="340.0">
												<SimplePredicate field="aj_dif" operator="lessOrEqual" value="-5.099999904632568"/>
											</Node>
										</Node>
										<Node score="40.142857142857146">
											<SimplePredicate field="ol_vol" operator="lessOrEqual" value="88750.0"/>
										</Node>
									</Node>
								</Node>
								<Node score="235.0">
									<SimplePredicate field="dolar_itau" operator="lessOrEqual" value="3.0845000743865967"/>
									<Node score="206.0">
										<SimplePredicate field="dif_sem" operator="lessOrEqual" value="-181.5"/>
										<Node score="26.75">
											<SimplePredicate field="dif_sem" operator="lessOrEqual" value="-223.9000015258789"/>
											<Node score="74.0">
												<SimplePredicate field="dif_sem" operator="lessOrEqual" value="-236.25"/>
												<Node score="95.17924528301887">
													<SimplePredicate field="dolar_bn" operator="lessOrEqual" value="3.065500020980835"/>
													<Node score="434.0">
														<SimplePredicate field="aj_dif" operator="lessOrEqual" value="-9.25"/>
													</Node>
												</Node>
												<Node score="14.25">
													<SimplePredicate field="dolar_itau" operator="lessOrEqual" value="3.059499979019165"/>
												</Node>
											</Node>
											<Node score="28.09090909090909">
												<SimplePredicate field="aj_dif" operator="lessOrEqual" value="-1.949999988079071"/>
												<Node score="13.25">
													<SimplePredicate field="dolar_itau" operator="lessOrEqual" value="2.9084999561309814"/>
												</Node>
											</Node>
											<Node score="55.111111111111114">
												<SimplePredicate field="aj_dif" operator="lessOrEqual" value="2.049999952316284"/>
											</Node>
										</Node>
										<Node score="98.0">
											<SimplePredicate field="dif_sem" operator="lessOrEqual" value="-190.25"/>
											<Node score="109.04">
												<SimplePredicate field="dolar_itau" operator="lessOrEqual" value="3.08050000667572"/>
												<Node score="156.1264367816092">
													<SimplePredicate field="dif_sem" operator="lessOrEqual" value="-196.25"/>
												</Node>
											</Node>
											<Node score="65.0">
												<SimplePredicate field="dolar_bn" operator="lessOrEqual" value="3.0744999647140503"/>
											</Node>
										</Node>
										<Node score="219.26666666666668">
											<SimplePredicate field="dolar_bn" operator="lessOrEqual" value="3.0815000534057617"/>
											<Node score="125.92857142857143">
												<SimplePredicate field="aj_dif" operator="lessOrEqual" value="0.05000000074505806"/>
											</Node>
										</Node>
										<Node score="401.5">
											<SimplePredicate field="dolar_bn" operator="lessOrEqual" value="3.0845000743865967"/>
										</Node>
									</Node>
									<Node score="230.0">
										<SimplePredicate field="dolar_itau" operator="lessOrEqual" value="2.989500045776367"/>
										<Node score="174.1">
											<SimplePredicate field="dif_sem" operator="lessOrEqual" value="-160.75"/>
											<Node score="24.914285714285715">
												<SimplePredicate field="dif_sem" operator="lessOrEqual" value="-167.8499984741211"/>
												<Node score="84.05263157894737">
													<SimplePredicate field="dolar_bn" operator="lessOrEqual" value="2.9459999799728394"/>
												</Node>
											</Node>
											<Node score="84.671875">
												<SimplePredicate field="dolar_itau" operator="lessOrEqual" value="2.9765000343322754"/>
											</Node>
										</Node>
										<Node score="125.6">
											<SimplePredicate field="aj_dif" operator="lessOrEqual" value="0.05000000074505806"/>
											<Node score="167.5">
												<SimplePredicate field="aj_dif" operator="lessOrEqual" value="-1.449999988079071"/>
											</Node>
										</Node>
										<Node score="189.88888888888889">
											<SimplePredicate field="ol_vol" operator="lessOrEqual" value="50.0"/>
										</Node>
									</Node>
									<Node score="32.6">
										<SimplePredicate field="dif_sem" operator="lessOrEqual" value="-173.25"/>
										<Node score="117.12903225806451">
											<SimplePredicate field="dolar_itau" operator="lessOrEqual" value="3.059499979019165"/>
											<Node score="39.0">
												<SimplePredicate field="dolar_itau" operator="lessOrEqual" value="3.0045000314712524"/>
											</Node>
										</Node>
										<Node score="49.333333333333336">
											<SimplePredicate field="dif_sem" operator="lessOrEqual" value="-176.75"/>
										</Node>
									</Node>
									<Node score="33.63157894736842">
										<SimplePredicate field="dif_sem" operator="lessOrEqual" value="-164.75"/>
										<Node score="12.76923076923077">
											<SimplePredicate field="aj_dif" operator="lessOrEqual" value="-0.949999988079071"/>
										</Node>
									</Node>
									<Node score="76.73684210526316">
										<SimplePredicate field="dolar_itau" operator="lessOrEqual" value="3.08050000667572"/>
									</Node>
								</Node>
								<Node score="231.53846153846155">
									<SimplePredicate field="dolar_itau" operator="lessOrEqual" value="8.873499870300293"/>
									<Node score="171.0">
										<SimplePredicate field="dolar_itau" operator="lessOrEqual" value="3.0885000228881836"/>
										<Node score="267.3888888888889">
											<SimplePredicate field="dolar_bn" operator="lessOrEqual" value="3.0815000534057617"/>
										</Node>
										<Node score="29.166666666666668">
											<SimplePredicate field="aj_dif" operator="lessOrEqual" value="2.049999952316284"/>
											<Node score="129.375">
												<SimplePredicate field="dif_sem" operator="lessOrEqual" value="-181.5"/>
											</Node>
										</Node>
										<Node score="84.0">
											<SimplePredicate field="dolar_bn" operator="lessOrEqual" value="3.0885000228881836"/>
										</Node>
									</Node>
									<Node score="528.0">
										<SimplePredicate field="dif_sem" operator="lessOrEqual" value="-340.25"/>
										<Node score="133.10526315789474">
											<SimplePredicate field="aj_dif" operator="lessOrEqual" value="9.050000190734863"/>
											<Node score="198.1764705882353">
												<SimplePredicate field="dolar_bn" operator="lessOrEqual" value="3.9674999713897705"/>
											</Node>
										</Node>
									</Node>
									<Node score="21.0">
										<SimplePredicate field="ol_vol" operator="lessOrEqual" value="37850.0"/>
										<Node score="102.97527706734869">
											<SimplePredicate field="open" operator="lessOrEqual" value="277.5"/>
										</Node>
									</Node>
									<Node score="28.0">
										<SimplePredicate field="aj_dif" operator="lessOrEqual" value="-7.099999904632568"/>
									</Node>
								</Node>
								<Node score="312.0">
									<SimplePredicate field="dif_sem" operator="lessOrEqual" value="-233.25"/>
								</Node>
							</Node>
						</Node>
						<Node score="200.14285714285714">
							<SimplePredicate field="dif_sem" operator="lessOrEqual" value="-232.0999984741211"/>
							<Node score="4.0">
								<SimplePredicate field="aj_dif" operator="lessOrEqual" value="-3.850000023841858"/>
								<Node score="94.0">
									<SimplePredicate field="dif_sem" operator="lessOrEqual" value="-316.75"/>
									<Node score="276.0">
										<SimplePredicate field="ol_dif" operator="lessOrEqual" value="150.0"/>
									</Node>
									<Node score="6.0">
										<SimplePredicate field="ol_dif" operator="lessOrEqual" value="8750.0"/>
										<Node score="28.0">
											<SimplePredicate field="aj_dif" operator="lessOrEqual" value="-4.900000095367432"/>
											<Node score="15.0">
												<SimplePredicate field="aj_dif" operator="lessOrEqual" value="-10.5"/>
											</Node>
										</Node>
									</Node>
								</Node>
								<Node score="318.0">
									<SimplePredicate field="dolar_bn" operator="lessOrEqual" value="5.508000135421753"/>
								</Node>
								<Node score="285.0">
									<SimplePredicate field="dif_sem" operator="lessOrEqual" value="-280.25"/>
								</Node>
								<Node score="92.0">
									<SimplePredicate field="ol_vol" operator="lessOrEqual" value="69900.0"/>
								</Node>
							</Node>
							<Node score="85.0">
								<SimplePredicate field="dif_sem" operator="lessOrEqual" value="-326.3000030517578"/>
								<Node score="273.0">
									<SimplePredicate field="ol_vol" operator="lessOrEqual" value="171200.0"/>
									<Node score="14.0">
										<SimplePredicate field="dif_sem" operator="lessOrEqual" value="-338.8500061035156"/>
										<Node score="127.0">
											<SimplePredicate field="aj_dif" operator="lessOrEqual" value="1.100000023841858"/>
										</Node>
									</Node>
									<Node score="311.0">
										<SimplePredicate field="aj_dif" operator="lessOrEqual" value="-1.3499999642372131"/>
										<Node score="314.5">
											<SimplePredicate field="ol_dif" operator="lessOrEqual" value="3150.0"/>
										</Node>
									</Node>
									<Node score="96.0">
										<SimplePredicate field="dolar_itau" operator="lessOrEqual" value="5.322499990463257"/>
										<Node score="85.0">
											<SimplePredicate field="dif_sem" operator="lessOrEqual" value="-328.1000061035156"/>
											<Node score="94.0">
												<SimplePredicate field="ol_dif" operator="lessOrEqual" value="4950.0"/>
											</Node>
										</Node>
									</Node>
									<Node score="85.0">
										<SimplePredicate field="ol_dif" operator="lessOrEqual" value="2900.0"/>
										<Node score="96.0">
											<SimplePredicate field="ol_vol" operator="lessOrEqual" value="69900.0"/>
										</Node>
									</Node>
								</Node>
								<Node score="431.0">
									<SimplePredicate field="ol_vol" operator="lessOrEqual" value="188650.0"/>
									<Node score="560.0">
										<SimplePredicate field="ol_dif" operator="lessOrEqual" value="4500.0"/>
									</Node>
								</Node>
								<Node score="151.33333333333334">
									<SimplePredicate field="dif_sem" operator="lessOrEqual" value="-330.75"/>
									<Node score="183.0">
										<SimplePredicate field="ol_dif" operator="lessOrEqual" value="5400.0"/>
									</Node>
								</Node>
								<Node score="380.0">
									<SimplePredicate field="aj_dif" operator="lessOrEqual" value="-0.45000000298023224"/>
									<Node score="405.0">
										<SimplePredicate field="dolar_bn" operator="lessOrEqual" value="5.508000135421753"/>
										<Node score="489.0">
											<SimplePredicate field="dif_sem" operator="lessOrEqual" value="-328.1000061035156"/>
										</Node>
									</Node>
								</Node>
								<Node score="186.0">
									<SimplePredicate field="aj_dif" operator="lessOrEqual" value="1.25"/>
								</Node>
							</Node>
							<Node score="428.0">
								<SimplePredicate field="ol_dif" operator="lessOrEqual" value="450.0"/>
								<Node score="6.0">
									<SimplePredicate field="dif_sem" operator="lessOrEqual" value="-316.75"/>
								</Node>
								<Node score="461.0">
									<SimplePredicate field="ol_dif" operator="lessOrEqual" value="250.0"/>
									<Node score="63.0">
										<SimplePredicate field="dolar_bn" operator="lessOrEqual" value="9.692999839782715"/>
										<Node score="236.85714285714286">
											<SimplePredicate field="dolar_bn" operator="lessOrEqual" value="9.49399995803833"/>
											<Node score="433.0">
												<SimplePredicate field="dif_sem" operator="lessOrEqual" value="-280.25"/>
											</Node>
										</Node>
									</Node>
								</Node>
								<Node score="267.0">
									<SimplePredicate field="dif_sem" operator="lessOrEqual" value="-314.25"/>
								</Node>
								<Node score="463.0">
									<SimplePredicate field="ol_vol" operator="lessOrEqual" value="61150.0"/>
									<Node score="451.0">
										<SimplePredicate field="dolar_bn" operator="lessOrEqual" value="2.8734999895095825"/>
									</Node>
								</Node>
								<Node score="278.0">
									<SimplePredicate field="ol_dif" operator="lessOrEqual" value="350.0"/>
								</Node>
							</Node>
							<Node score="36.0">
								<SimplePredicate field="dolar_itau" operator="lessOrEqual" value="3.8545000553131104"/>
								<Node score="93.0">
									<SimplePredicate field="dolar_itau" operator="lessOrEqual" value="3.7955000400543213"/>
								</Node>
							</Node>
							<Node score="424.0">
								<SimplePredicate field="aj_dif" operator="lessOrEqual" value="-3.450000047683716"/>
								<Node score="121.0">
									<SimplePredicate field="ol_dif" operator="lessOrEqual" value="2050.0"/>
								</Node>
							</Node>
							<Node score="149.8181818181818">
								<SimplePredicate field="ol_vol" operator="lessOrEqual" value="201950.0"/>
								<Node score="262.9428571428571">
									<SimplePredicate field="aj_dif" operator="lessOrEqual" value="1.3499999642372131"/>
									<Node score="121.5">
										<SimplePredicate field="dif_sem" operator="lessOrEqual" value="-312.1999969482422"/>
									</Node>
								</Node>
								<Node score="416.0">
									<SimplePredicate field="ol_vol" operator="lessOrEqual" value="19500.0"/>
								</Node>
							</Node>
							<Node score="278.0">
								<SimplePredicate field="ol_dif" operator="lessOrEqual" value="750.0"/>
							</Node>
							<Node score="15.9">
								<SimplePredicate field="aj_dif" operator="lessOrEqual" value="1.550000011920929"/>
							</Node>
						</Node>
						<Node score="73.0">
							<SimplePredicate field="dolar_bn" operator="lessOrEqual" value="9.026000022888184"/>
							<Node score="167.0">
								<SimplePredicate field="ol_dif" operator="lessOrEqual" value="6450.0"/>
								<Node score="150.0">
									<SimplePredicate field="dolar_itau" operator="lessOrEqual" value="8.873499870300293"/>
									<Node score="165.0">
										<SimplePredicate field="ol_dif" operator="lessOrEqual" value="150.0"/>
									</Node>
									<Node score="61.0">
										<SimplePredicate field="dif_sem" operator="lessOrEqual" value="-218.5"/>
										<Node score="73.0">
											<SimplePredicate field="ol_dif" operator="lessOrEqual" value="850.0"/>
										</Node>
									</Node>
									<Node score="97.0">
										<SimplePredicate field="aj_dif" operator="lessOrEqual" value="1.100000023841858"/>
									</Node>
									<Node score="125.0">
										<SimplePredicate field="ol_vol" operator="lessOrEqual" value="750.0"/>
									</Node>
								</Node>
								<Node score="326.5">
									<SimplePredicate field="vol_ope" operator="lessOrEqual" value="50.0"/>
								</Node>
							</Node>
							<Node score="76.0">
								<SimplePredicate field="ol_dif" operator="lessOrEqual" value="8950.0"/>
								<Node score="56.0">
									<SimplePredicate field="dif_sem" operator="lessOrEqual" value="-215.75"/>
								</Node>
							</Node>
							<Node score="116.0">
								<SimplePredicate field="aj_dif" operator="lessOrEqual" value="0.05000000074505806"/>
							</Node>
						</Node>
						<Node score="117.0">
							<SimplePredicate field="dif_sem" operator="lessOrEqual" value="-226.9000015258789"/>
							<Node score="122.0">
								<SimplePredicate field="dolar_bn" operator="lessOrEqual" value="9.163000106811523"/>
							</Node>
							<Node score="22.0">
								<SimplePredicate field="dolar_itau" operator="lessOrEqual" value="9.492500305175781"/>
								<Node score="8.0">
									<SimplePredicate field="dif_sem" operator="lessOrEqual" value="-227.75"/>
								</Node>
							</Node>
						</Node>
					</Node>
				</TreeModel>
			</Segment>
			<Segment id="2">
				<True/>
				<TreeModel functionName="regression" missingValueStrategy="nullPrediction" noTrueChildStrategy="returnLastPrediction" splitCharacteristic="multiSplit">
					<MiningSchema>
						<MiningField name="open"/>
						<MiningField name="high"/>
						<MiningField name="low"/>
						<MiningField name="aj_dif"/>
						<MiningField name="ol_vol"/>
						<MiningField name="ol_dif"/>
						<MiningField name="vol_ope"/>
						<MiningField name="dolar_bn"/>
						<MiningField name="dolar_itau"/>
						<MiningField name="dif_sem"/>
					</MiningSchema>
					<Node score="293.25">
						<True/>
						<Node score="233.0">
							<SimplePredicate field="dif_sem" operator="lessOrEqual" value="-355.75"/>
							<Node score="222.0">
								<SimplePredicate field="dolar_itau" operator="lessOrEqual" value="4.578999996185303"/>
								<Node score="208.0">
									<SimplePredicate field="aj_dif" operator="lessOrEqual" value="1.100000023841858"/>
									<Node score="221.0">
										<SimplePredicate field="dolar_itau" operator="lessOrEqual" value="3.9765000343322754"/>
										<Node score="146.0">
											<SimplePredicate field="dolar_bn" operator="lessOrEqual" value="3.9774999618530273"/>
											<Node score="218.0">
												<SimplePredicate field="dolar_bn" operator="lessOrEqual" value="3.1705000400543213"/>
											</Node>
											<Node score="175.0">
												<SimplePredicate field="dif_sem" operator="lessOrEqual" value="-368.5"/>
											</Node>
										</Node>
									</Node>
									<Node score="231.63636363636363">
										<SimplePredicate field="dolar_itau" operator="lessOrEqual" value="4.01449990272522"/>
									</Node>
									<Node score="260.0">
										<SimplePredicate field="aj_dif" operator="lessOrEqual" value="-1.949999988079071"/>
										<Node score="440.0">
											<SimplePredicate field="dolar_bn" operator="lessOrEqual" value="4.045500040054321"/>
										</Node>
										<Node score="307.0">
											<SimplePredicate field="aj_dif" operator="lessOrEqual" value="-9.25"/>
										</Node>
										<Node score="283.0">
											<SimplePredicate field="dif_sem" operator="lessOrEqual" value="-399.5"/>
										</Node>
									</Node>
									<Node score="146.0">
										<SimplePredicate field="dolar_bn" operator="lessOrEqual" value="4.045500040054321"/>
									</Node>
									<Node score="260.0">
										<SimplePredicate field="ol_vol" operator="lessOrEqual" value="50.0"/>
									</Node>
									<Node score="214.0">
										<SimplePredicate field="aj_dif" operator="lessOrEqual" value="-0.949999988079071"/>
									</Node>
								</Node>
								<Node score="235.5">
									<SimplePredicate field="dolar_bn" operator="lessOrEqual" value="4.01800012588501"/>
									<Node score="259.6666666666667">
										<SimplePredicate field="dif_sem" operator="lessOrEqual" value="-361.25"/>
									</Node>
								</Node>
								<Node score="251.25">
									<SimplePredicate field="vol_ope" operator="lessOrEqual" value="50.0"/>
									<Node score="329.8181818181818">
										<SimplePredicate field="ol_vol" operator="lessOrEqual" value="50.0"/>
									</Node>
								</Node>
							</Node>
							<Node score="421.2">
								<SimplePredicate field="dolar_bn" operator="lessOrEqual" value="4.667999982833862"/>
								<Node score="312.0">
									<SimplePredicate field="dif_sem" operator="lessOrEqual" value="-399.5"/>
									<Node score="413.9230769230769">
										<SimplePredicate field="aj_dif" operator="lessOrEqual" value="0.45000000298023224"/>
									</Node>
								</Node>
							</Node>
							<Node score="244.75">
								<SimplePredicate field="dolar_itau" operator="lessOrEqual" value="4.9700000286102295"/>
								<Node score="506.0">
									<SimplePredicate field="dolar_itau" operator="lessOrEqual" value="4.666499853134155"/>
								</Node>
								<Node score="353.0">
									<SimplePredicate field="dolar_itau" operator="lessOrEqual" value="4.868499994277954"/>
									<Node score="378.5">
										<SimplePredicate field="dif_sem" operator="lessOrEqual" value="-408.25"/>
										<Node score="266.6666666666667">
											<SimplePredicate field="aj_dif" operator="lessOrEqual" value="0.05000000074505806"/>
											<Node score="471.0">
												<SimplePredicate field="aj_dif" operator="lessOrEqual" value="-3.850000023841858"/>
												<Node score="332.5">
													<SimplePredicate field="dolar_bn" operator="lessOrEqual" value="4.759999990463257"/>
												</Node>
											</Node>
											<Node score="223.6">
												<SimplePredicate field="aj_dif" operator="lessOrEqual" value="-1.949999988079071"/>
											</Node>
										</Node>
										<Node score="381.0">
											<SimplePredicate field="dolar_itau" operator="lessOrEqual" value="4.758500099182129"/>
											<Node score="377.625">
												<SimplePredicate field="dolar_bn" operator="lessOrEqual" value="4.759999990463257"/>
											</Node>
										</Node>
									</Node>
									<Node score="268.1764705882353">
										<SimplePredicate field="dif_sem" operator="lessOrEqual" value="-399.5"/>
									</Node>
									<Node score="377.0">
										<SimplePredicate field="dolar_itau" operator="lessOrEqual" value="4.758500099182129"/>
									</Node>
								</Node>
								<Node score="295.0">
									<SimplePredicate field="aj_dif" operator="lessOrEqual" value="3.049999952316284"/>
									<Node score="301.45454545454544">
										<SimplePredicate field="aj_dif" operator="lessOrEqual" value="-1.949999988079071"/>
										<Node score="479.0">
											<SimplePredicate field="aj_dif" operator="lessOrEqual" value="-9.25"/>
										</Node>
									</Node>
									<Node score="439.25">
										<SimplePredicate field="dif_sem" operator="lessOrEqual" value="-383.5"/>
									</Node>
									<Node score="541.0">
										<SimplePredicate field="aj_dif" operator="lessOrEqual" value="0.550000011920929"/>
									</Node>
								</Node>
							</Node>
							<Node score="209.0">
								<SimplePredicate field="aj_dif" operator="lessOrEqual" value="0.05000000074505806"/>
								<Node score="214.0">
									<SimplePredicate field="dif_sem" operator="lessOrEqual" value="-361.25"/>
									<Node score="355.8">
										<SimplePredicate field="aj_dif" operator="lessOrEqual" value="-3.450000047683716"/>
									</Node>
									<Node score="224.0">
										<SimplePredicate field="ol_vol" operator="lessOrEqual" value="50.0"/>
									</Node>
								</Node>
							</Node>
							<Node score="436.25">
								<SimplePredicate field="aj_dif" operator="lessOrEqual" value="1.100000023841858"/>
							</Node>
							<Node score="295.0">
								<SimplePredicate field="dif_sem" operator="lessOrEqual" value="-368.5"/>
								<Node score="289.0">
									<SimplePredicate field="aj_dif" operator="lessOrEqual" value="2.049999952316284"/>
								</Node>
							</Node>
							<Node score="296.0">
								<SimplePredicate field="dolar_bn" operator="lessOrEqual" value="5.0934998989105225"/>
								<Node score="243.0">
									<SimplePredicate field="aj_dif" operator="lessOrEqual" value="3.049999952316284"/>
								</Node>
							</Node>
							<Node score="224.0">
								<SimplePredicate field="aj_dif" operator="lessOrEqual" value="7.049999952316284"/>
								<Node score="221.0">
									<SimplePredicate field="ol_dif" operator="lessOrEqual" value="-7450.0"/>
								</Node>
							</Node>
						</Node>
						<Node score="124.0">
							<SimplePredicate field="dolar_bn" operator="lessOrEqual" value="5.203500032424927"/>
							<Node score="388.0">
								<SimplePredicate field="dif_sem" operator="lessOrEqual" value="-160.75"/>
								<Node score="125.0">
									<SimplePredicate field="dolar_itau" operator="lessOrEqual" value="3.093500018119812"/>
									<Node score="29.0">
										<SimplePredicate field="aj_dif" operator="lessOrEqual" value="0.05000000074505806"/>
										<Node score="114.05128205128206">
											<SimplePredicate field="dif_sem" operator="lessOrEqual" value="-171.0500030517578"/>
											<Node score="56.82608695652174">
												<SimplePredicate field="dif_sem" operator="lessOrEqual" value="-223.9000015258789"/>
												<Node score="12.0">
													<SimplePredicate field="ol_dif" operator="lessOrEqual" value="-150.0"/>
												</Node>
												<Node score="344.0">
													<SimplePredicate field="aj_dif" operator="lessOrEqual" value="-9.25"/>
													<Node score="434.0">
														<SimplePredicate field="dolar_itau" operator="lessOrEqual" value="3.049499988555908"/>
													</Node>
												</Node>
												<Node score="138.5">
													<SimplePredicate field="aj_dif" operator="lessOrEqual" value="-8.199999809265137"/>
												</Node>
											</Node>
											<Node score="127.375">
												<SimplePredicate field="dif_sem" operator="lessOrEqual" value="-178.75"/>
												<Node score="126.69444444444444">
													<SimplePredicate field="dolar_bn" operator="lessOrEqual" value="3.065500020980835"/>
													<Node score="153.35714285714286">
														<SimplePredicate field="dolar_itau" operator="lessOrEqual" value="2.8830000162124634"/>
													</Node>
												</Node>
												<Node score="66.60714285714286">
													<SimplePredicate field="dolar_itau" operator="lessOrEqual" value="3.08050000667572"/>
												</Node>
											</Node>
											<Node score="34.38461538461539">
												<SimplePredicate field="aj_dif" operator="lessOrEqual" value="-2.950000047683716"/>
												<Node score="86.0">
													<SimplePredicate field="dolar_bn" operator="lessOrEqual" value="2.885499954223633"/>
												</Node>
											</Node>
											<Node score="64.8">
												<SimplePredicate field="dif_sem" operator="lessOrEqual" value="-176.75"/>
											</Node>
										</Node>
										<Node score="200.0">
											<SimplePredicate field="dif_sem" operator="lessOrEqual" value="-164.75"/>
											<Node score="3.0">
												<SimplePredicate field="open" operator="lessOrEqual" value="80.0"/>
												<Node score="29.969924812030076">
													<SimplePredicate field="dif_sem" operator="lessOrEqual" value="-165.75"/>
													<Node score="165.0">
														<SimplePredicate field="aj_dif" operator="lessOrEqual" value="-7.099999904632568"/>
													</Node>
												</Node>
											</Node>
										</Node>
										<Node score="125.0">
											<SimplePredicate field="dolar_itau" operator="lessOrEqual" value="2.989500045776367"/>
											<Node score="113.88461538461539">
												<SimplePredicate field="ol_vol" operator="lessOrEqual" value="50.0"/>
												<Node score="152.0">
													<SimplePredicate field="dolar_bn" operator="lessOrEqual" value="2.8945000171661377"/>
												</Node>
											</Node>
											<Node score="29.0">
												<SimplePredicate field="ol_vol" operator="lessOrEqual" value="150.0"/>
											</Node>
										</Node>
										<Node score="180.0">
											<SimplePredicate field="ol_vol" operator="lessOrEqual" value="50.0"/>
											<Node score="32.25">
												<SimplePredicate field="dolar_itau" operator="lessOrEqual" value="3.0705000162124634"/>
											</Node>
										</Node>
									</Node>
									<Node score="54.142857142857146">
										<SimplePredicate field="dif_sem" operator="lessOrEqual" value="-173.25"/>
										<Node score="231.46666666666667">
											<SimplePredicate field="aj_dif" operator="lessOrEqual" value="0.550000011920929"/>
										</Node>
										<Node score="172.9047619047619">
											<SimplePredicate field="aj_dif" operator="lessOrEqual" value="6.150000095367432"/>
											<Node score="263.77777777777777">
												<SimplePredicate field="dolar_bn" operator="lessOrEqual" value="2.885499954223633"/>
												<Node score="144.52">
													<SimplePredicate field="dif_sem" operator="lessOrEqual" value="-186.75"/>
												</Node>
											</Node>
											<Node score="112.9074074074074">
												<SimplePredicate field="dolar_itau" operator="lessOrEqual" value="3.08050000667572"/>
											</Node>
										</Node>
										<Node score="127.8">
											<SimplePredicate field="dolar_bn" operator="lessOrEqual" value="2.936500072479248"/>
											<Node score="46.2">
												<SimplePredicate field="dolar_bn" operator="lessOrEqual" value="2.8734999895095825"/>
											</Node>
										</Node>
									</Node>
									<Node score="10.0">
										<SimplePredicate field="dif_sem" operator="lessOrEqual" value="-162.75"/>
										<Node score="171.0">
											<SimplePredicate field="dolar_itau" operator="lessOrEqual" value="3.08050000667572"/>
											<Node score="38.3235294117647">
												<SimplePredicate field="dolar_bn" operator="lessOrEqual" value="3.0404999256134033"/>
												<Node score="62.06666666666667">
													<SimplePredicate field="dif_sem" operator="lessOrEqual" value="-171.0500030517578"/>
												</Node>
											</Node>
											<Node score="69.64285714285714">
												<SimplePredicate field="dolar_itau" operator="lessOrEqual" value="3.0774999856948853"/>
											</Node>
										</Node>
										<Node score="42.0">
											<SimplePredicate field="dolar_bn" operator="lessOrEqual" value="3.0885000228881836"/>
											<Node score="6.5">
												<SimplePredicate field="dif_sem" operator="lessOrEqual" value="-167.8499984741211"/>
											</Node>
										</Node>
										<Node score="1.8">
											<SimplePredicate field="dif_sem" operator="lessOrEqual" value="-167.8499984741211"/>
										</Node>
									</Node>
									<Node score="235.0">
										<SimplePredicate field="open" operator="lessOrEqual" value="80.0"/>
									</Node>
								</Node>
								<Node score="152.92045454545453">
									<SimplePredicate field="dolar_bn" operator="lessOrEqual" value="4.01800012588501"/>
									<Node score="278.25">
										<SimplePredicate field="dif_sem" operator="lessOrEqual" value="-321.1999969482422"/>
										<Node score="75.0">
											<SimplePredicate field="dolar_itau" operator="lessOrEqual" value="3.1545000076293945"/>
											<Node score="89.0">
												<SimplePredicate field="dolar_itau" operator="lessOrEqual" value="3.1484999656677246"/>
											</Node>
										</Node>
										<Node score="395.0">
											<SimplePredicate field="dolar_bn" operator="lessOrEqual" value="3.9674999713897705"/>
											<Node score="116.25">
												<SimplePredicate field="aj_dif" operator="lessOrEqual" value="9.050000190734863"/>
												<Node score="200.0">
													<SimplePredicate field="dif_sem" operator="lessOrEqual" value="-340.25"/>
												</Node>
											</Node>
										</Node>
										<Node score="159.57142857142858">
											<SimplePredicate field="dolar_itau" operator="lessOrEqual" value="3.9765000343322754"/>
										</Node>
										<Node score="142.5625">
											<SimplePredicate field="dif_sem" operator="lessOrEqual" value="-333.75"/>
										</Node>
									</Node>
									<Node score="63.72727272727273">
										<SimplePredicate field="dolar_itau" operator="lessOrEqual" value="3.8704999685287476"/>
										<Node score="43.7536231884058">
											<SimplePredicate field="dif_sem" operator="lessOrEqual" value="-218.5"/>
											<Node score="216.57142857142858">
												<SimplePredicate field="dif_sem" operator="lessOrEqual" value="-238.75"/>
												<Node score="103.62745098039215">
													<SimplePredicate field="dolar_itau" operator="lessOrEqual" value="3.8545000553131104"/>
												</Node>
											</Node>
											<Node score="85.3">
												<SimplePredicate field="dolar_itau" operator="lessOrEqual" value="3.16949999332428"/>
											</Node>
										</Node>
										<Node score="422.0">
											<SimplePredicate field="aj_dif" operator="lessOrEqual" value="-9.25"/>
										</Node>
										<Node score="146.11764705882354">
											<SimplePredicate field="dif_sem" operator="lessOrEqual" value="-173.25"/>
										</Node>
									</Node>
									<Node score="172.14634146341464">
										<SimplePredicate field="ol_vol" operator="lessOrEqual" value="50.0"/>
										<Node score="94.55555555555556">
											<SimplePredicate field="dif_sem" operator="lessOrEqual" value="-291.25"/>
											<Node score="22.428571428571427">
												<SimplePredicate field="aj_dif" operator="lessOrEqual" value="0.05000000074505806"/>
											</Node>
										</Node>
									</Node>
									<Node score="94.9">
										<SimplePredicate field="aj_dif" operator="lessOrEqual" value="-1.449999988079071"/>
										<Node score="51.0">
											<SimplePredicate field="dolar_bn" operator="lessOrEqual" value="3.9040000438690186"/>
										</Node>
									</Node>
								</Node>
								<Node score="187.5">
									<SimplePredicate field="dif_sem" operator="lessOrEqual" value="-312.1999969482422"/>
									<Node score="41.58095238095238">
										<SimplePredicate field="aj_dif" operator="lessOrEqual" value="4.049999952316284"/>
										<Node score="202.0">
											<SimplePredicate field="dif_sem" operator="lessOrEqual" value="-340.25"/>
											<Node score="203.0">
												<SimplePredicate field="dolar_bn" operator="lessOrEqual" value="4.586499929428101"/>
												<Node score="138.32432432432432">
													<SimplePredicate field="dolar_itau" operator="lessOrEqual" value="4.493499994277954"/>
												</Node>
											</Node>
											<Node score="102.66666666666667">
												<SimplePredicate field="dif_sem" operator="lessOrEqual" value="-349.6499938964844"/>
											</Node>
										</Node>
										<Node score="8.5">
											<SimplePredicate field="ol_dif" operator="lessOrEqual" value="-50.0"/>
											<Node score="30.333333333333332">
												<SimplePredicate field="ol_vol" operator="lessOrEqual" value="37850.0"/>
											</Node>
										</Node>
										<Node score="68.96296296296296">
											<SimplePredicate field="aj_dif" operator="lessOrEqual" value="-0.949999988079071"/>
										</Node>
									</Node>
									<Node score="180.8">
										<SimplePredicate field="dolar_itau" operator="lessOrEqual" value="4.493499994277954"/>
										<Node score="4.0">
											<SimplePredicate field="aj_dif" operator="lessOrEqual" value="5.900000095367432"/>
											<Node score="49.7">
												<SimplePredicate field="dif_sem" operator="lessOrEqual" value="-322.8000030517578"/>
											</Node>
										</Node>
										<Node score="91.85714285714286">
											<SimplePredicate field="dolar_itau" operator="lessOrEqual" value="4.1524999141693115"/>
										</Node>
									</Node>
									<Node score="379.0">
										<SimplePredicate field="aj_dif" operator="lessOrEqual" value="4.8500001430511475"/>
									</Node>
									<Node score="155.66666666666666">
										<SimplePredicate field="dolar_bn" operator="lessOrEqual" value="4.586499929428101"/>
									</Node>
								</Node>
								<Node score="143.03571428571428">
									<SimplePredicate field="ol_dif" operator="lessOrEqual" value="50.0"/>
									<Node score="120.30434782608695">
										<SimplePredicate field="dif_sem" operator="lessOrEqual" value="-304.8500061035156"/>
										<Node score="40.0">
											<SimplePredicate field="dolar_bn" operator="lessOrEqual" value="4.083500146865845"/>
										</Node>
										<Node score="100.57142857142857">
											<SimplePredicate field="dolar_itau" operator="lessOrEqual" value="4.1524999141693115"/>
										</Node>
									</Node>
									<Node score="102.0">
										<SimplePredicate field="dolar_bn" operator="lessOrEqual" value="4.245500087738037"/>
										<Node score="140.375">
											<SimplePredicate field="aj_dif" operator="lessOrEqual" value="3.049999952316284"/>
										</Node>
									</Node>
									<Node score="235.5">
										<SimplePredicate field="aj_dif" operator="lessOrEqual" value="0.550000011920929"/>
									</Node>
								</Node>
							</Node>
							<Node score="148.0">
								<SimplePredicate field="ol_dif" operator="lessOrEqual" value="-150.0"/>
							</Node>
							<Node score="252.0">
								<SimplePredicate field="dolar_bn" operator="lessOrEqual" value="2.936500072479248"/>
								<Node score="234.0">
									<SimplePredicate field="dolar_itau" operator="lessOrEqual" value="2.9084999561309814"/>
									<Node score="349.0">
										<SimplePredicate field="dolar_itau" operator="lessOrEqual" value="2.902500033378601"/>
										<Node score="247.0">
											<SimplePredicate field="dolar_bn" operator="lessOrEqual" value="2.906499981880188"/>
											<Node score="264.0">
												<SimplePredicate field="aj_dif" operator="lessOrEqual" value="-0.45000000298023224"/>
											</Node>
										</Node>
									</Node>
								</Node>
								<Node score="192.0">
									<SimplePredicate field="aj_dif" operator="lessOrEqual" value="-2.950000047683716"/>
									<Node score="301.0">
										<SimplePredicate field="dolar_itau" operator="lessOrEqual" value="2.9355000257492065"/>
										<Node score="406.0">
											<SimplePredicate field="dolar_itau" operator="lessOrEqual" value="2.9144999980926514"/>
										</Node>
									</Node>
								</Node>
								<Node score="398.5">
									<SimplePredicate field="dolar_bn" operator="lessOrEqual" value="2.9184999465942383"/>
								</Node>
								<Node score="330.0">
									<SimplePredicate field="dolar_itau" operator="lessOrEqual" value="2.926500082015991"/>
									<Node score="191.0">
										<SimplePredicate field="dolar_bn" operator="lessOrEqual" value="2.924499988555908"/>
									</Node>
								</Node>
								<Node score="527.3333333333334">
									<SimplePredicate field="aj_dif" operator="lessOrEqual" value="-1.449999988079071"/>
								</Node>
							</Node>
							<Node score="502.0">
								<SimplePredicate field="dolar_bn" operator="lessOrEqual" value="3.0115000009536743"/>
								<Node score="525.0">
									<SimplePredicate field="dif_sem" operator="lessOrEqual" value="-154.75"/>
									<Node score="118.71428571428571">
										<SimplePredicate field="ol_vol" operator="lessOrEqual" value="50.0"/>
										<Node score="230.2">
											<SimplePredicate field="dolar_itau" operator="lessOrEqual" value="2.9614999294281006"/>
											<Node score="149.5">
												<SimplePredicate field="dolar_bn" operator="lessOrEqual" value="2.9459999799728394"/>
											</Node>
										</Node>
										<Node score="162.66666666666666">
											<SimplePredicate field="aj_dif" operator="lessOrEqual" value="-0.949999988079071"/>
										</Node>
									</Node>
									<Node score="151.33333333333334">
										<SimplePredicate field="dolar_itau" operator="lessOrEqual" value="2.9524999856948853"/>
									</Node>
									<Node score="197.0">
										<SimplePredicate field="aj_dif" operator="lessOrEqual" value="-0.949999988079071"/>
									</Node>
								</Node>
								<Node score="219.5">
									<SimplePredicate field="dolar_itau" operator="lessOrEqual" value="2.968500018119812"/>
									<Node score="264.0">
										<SimplePredicate field="aj_dif" operator="lessOrEqual" value="-1.949999988079071"/>
									</Node>
									<Node score="192.0">
										<SimplePredicate field="dolar_itau" operator="lessOrEqual" value="2.9355000257492065"/>
									</Node>
								</Node>
							</Node>
							<Node score="77.0">
								<SimplePredicate field="aj_dif" operator="lessOrEqual" value="-0.45000000298023224"/>
								<Node score="493.0">
									<SimplePredicate field="dolar_bn" operator="lessOrEqual" value="3.0815000534057617"/>
								</Node>
							</Node>
						</Node>
						<Node score="28.75">
							<SimplePredicate field="ol_dif" operator="lessOrEqual" value="50.0"/>
							<Node score="89.28571428571429">
								<SimplePredicate field="dif_sem" operator="lessOrEqual" value="-270.1499938964844"/>
								<Node score="67.38888888888889">
									<SimplePredicate field="ol_vol" operator="lessOrEqual" value="25050.0"/>
								</Node>
								<Node score="55.0">
									<SimplePredicate field="ol_vol" operator="lessOrEqual" value="88750.0"/>
									<Node score="130.0">
										<SimplePredicate field="dolar_bn" operator="lessOrEqual" value="8.623000144958496"/>
										<Node score="178.2888888888889">
											<SimplePredicate field="dif_sem" operator="lessOrEqual" value="-278.1499938964844"/>
											<Node score="161.6086956521739">
												<SimplePredicate field="aj_dif" operator="lessOrEqual" value="-0.45000000298023224"/>
												<Node score="353.64285714285717">
													<SimplePredicate field="ol_dif" operator="lessOrEqual" value="-5850.0"/>
												</Node>
											</Node>
											<Node score="54.0">
												<SimplePredicate field="dif_sem" operator="lessOrEqual" value="-349.6499938964844"/>
											</Node>
										</Node>
										<Node score="498.85714285714283">
											<SimplePredicate field="ol_dif" operator="lessOrEqual" value="-1350.0"/>
											<Node score="389.0">
												<SimplePredicate field="aj_dif" operator="lessOrEqual" value="-2.100000023841858"/>
											</Node>
										</Node>
									</Node>
									<Node score="59.0">
										<SimplePredicate field="aj_dif" operator="lessOrEqual" value="-0.949999988079071"/>
										<Node score="55.0">
											<SimplePredicate field="ol_vol" operator="lessOrEqual" value="37850.0"/>
										</Node>
									</Node>
									<Node score="79.0">
										<SimplePredicate field="ol_vol" operator="lessOrEqual" value="61150.0"/>
										<Node score="98.75">
											<SimplePredicate field="ol_dif" operator="lessOrEqual" value="-2750.0"/>
										</Node>
									</Node>
								</Node>
								<Node score="268.0">
									<SimplePredicate field="dolar_bn" operator="lessOrEqual" value="5.889000177383423"/>
									<Node score="333.4166666666667">
										<SimplePredicate field="dif_sem" operator="lessOrEqual" value="-322.8000030517578"/>
										<Node score="244.42857142857142">
											<SimplePredicate field="ol_dif" operator="lessOrEqual" value="-5250.0"/>
											<Node score="128.21428571428572">
												<SimplePredicate field="dolar_itau" operator="lessOrEqual" value="5.724999904632568"/>
											</Node>
										</Node>
										<Node score="132.4">
											<SimplePredicate field="dolar_itau" operator="lessOrEqual" value="5.322499990463257"/>
										</Node>
									</Node>
									<Node score="21.5">
										<SimplePredicate field="aj_dif" operator="lessOrEqual" value="-0.45000000298023224"/>
										<Node score="269.27272727272725">
											<SimplePredicate field="ol_dif" operator="lessOrEqual" value="-2150.0"/>
										</Node>
									</Node>
									<Node score="43.333333333333336">
										<SimplePredicate field="low" operator="lessOrEqual" value="80.0"/>
									</Node>
								</Node>
								<Node score="10.631578947368421">
									<SimplePredicate field="dif_sem" operator="lessOrEqual" value="-318.5"/>
									<Node score="92.85714285714286">
										<SimplePredicate field="dolar_bn" operator="lessOrEqual" value="8.005499839782715"/>
										<Node score="419.0">
											<SimplePredicate field="ol_dif" operator="lessOrEqual" value="-13150.0"/>
										</Node>
									</Node>
									<Node score="93.0">
										<SimplePredicate field="dif_sem" operator="lessOrEqual" value="-324.25"/>
									</Node>
								</Node>
								<Node score="258.5882352941176">
									<SimplePredicate field="dolar_itau" operator="lessOrEqual" value="8.537500381469727"/>
									<Node score="171.73529411764707">
										<SimplePredicate field="aj_dif" operator="lessOrEqual" value="1.100000023841858"/>
									</Node>
								</Node>
								<Node score="102.5">
									<SimplePredicate field="aj_dif" operator="lessOrEqual" value="-0.949999988079071"/>
								</Node>
							</Node>
							<Node score="4.0">
								<SimplePredicate field="ol_vol" operator="lessOrEqual" value="27850.0"/>
								<Node score="5.0">
									<SimplePredicate field="ol_dif" operator="lessOrEqual" value="-1350.0"/>
									<Node score="4.0">
										<SimplePredicate field="ol_dif" operator="lessOrEqual" value="-3950.0"/>
									</Node>
									<Node score="16.0">
										<SimplePredicate field="dolar_itau" operator="lessOrEqual" value="8.759999752044678"/>
										<Node score="48.0">
											<SimplePredicate field="ol_vol" operator="lessOrEqual" value="21600.0"/>
										</Node>
									</Node>
									<Node score="4.0">
										<SimplePredicate field="ol_dif" operator="lessOrEqual" value="-2150.0"/>
										<Node score="16.0">
											<SimplePredicate field="dolar_bn" operator="lessOrEqual" value="8.767000198364258"/>
										</Node>
									</Node>
									<Node score="30.0">
										<SimplePredicate field="ol_vol" operator="lessOrEqual" value="2850.0"/>
									</Node>
								</Node>
								<Node score="73.0">
									<SimplePredicate field="aj_dif" operator="lessOrEqual" value="-2.950000047683716"/>
									<Node score="61.333333333333336">
										<SimplePredicate field="aj_dif" operator="lessOrEqual" value="-3.850000023841858"/>
									</Node>
								</Node>
							</Node>
							<Node score="115.5">
								<SimplePredicate field="dif_sem" operator="lessOrEqual" value="-236.25"/>
								<Node score="159.0">
									<SimplePredicate field="ol_vol" operator="lessOrEqual" value="50850.0"/>
									<Node score="272.6">
										<SimplePredicate field="aj_dif" operator="lessOrEqual" value="-0.2500000074505806"/>
										<Node score="435.0">
											<SimplePredicate field="ol_vol" operator="lessOrEqual" value="45050.0"/>
											<Node score="356.0">
												<SimplePredicate field="dif_sem" operator="lessOrEqual" value="-268.75"/>
											</Node>
										</Node>
									</Node>
									<Node score="37.0">
										<SimplePredicate field="ol_dif" operator="lessOrEqual" value="-1850.0"/>
										<Node score="41.0">
											<SimplePredicate field="dif_sem" operator="lessOrEqual" value="-268.75"/>
										</Node>
									</Node>
								</Node>
								<Node score="44.5">
									<SimplePredicate field="dif_sem" operator="lessOrEqual" value="-257.3999938964844"/>
									<Node score="16.0">
										<SimplePredicate field="dif_sem" operator="lessOrEqual" value="-268.75"/>
									</Node>
									<Node score="250.0">
										<SimplePredicate field="dolar_itau" operator="lessOrEqual" value="8.41700029373169"/>
									</Node>
								</Node>
								<Node score="297.2857142857143">
									<SimplePredicate field="dolar_itau" operator="lessOrEqual" value="9.722500324249268"/>
									<Node score="101.75">
										<SimplePredicate field="ol_vol" operator="lessOrEqual" value="79950.0"/>
									</Node>
								</Node>
								<Node score="354.2">
									<SimplePredicate field="aj_dif" operator="lessOrEqual" value="0.550000011920929"/>
								</Node>
							</Node>
							<Node score="30.6">
								<SimplePredicate field="dolar_bn" operator="lessOrEqual" value="9.319499969482422"/>
								<Node score="119.8">
									<SimplePredicate field="dolar_itau" operator="lessOrEqual" value="9.153500080108643"/>
									<Node score="25.0">
										<SimplePredicate field="dif_sem" operator="lessOrEqual" value="-230.75"/>
										<Node score="5.0">
											<SimplePredicate field="ol_dif" operator="lessOrEqual" value="-7450.0"/>
										</Node>
									</Node>
									<Node score="69.55555555555556">
										<SimplePredicate field="ol_vol" operator="lessOrEqual" value="152200.0"/>
									</Node>
								</Node>
							</Node>
							<Node score="38.142857142857146">
								<SimplePredicate field="dolar_itau" operator="lessOrEqual" value="13.84499979019165"/>
								<Node score="392.5">
									<SimplePredicate field="ol_vol" operator="lessOrEqual" value="79950.0"/>
									<Node score="128.625">
										<SimplePredicate field="ol_dif" operator="lessOrEqual" value="-2750.0"/>
									</Node>
								</Node>
								<Node score="196.5">
									<SimplePredicate field="ol_dif" operator="lessOrEqual" value="-7450.0"/>
								</Node>
							</Node>
						</Node>
						<Node score="45.0">
							<SimplePredicate field="aj_dif" operator="lessOrEqual" value="-4.900000095367432"/>
							<Node score="121.0">
								<SimplePredicate field="dolar_itau" operator="lessOrEqual" value="8.617500305175781"/>
								<Node score="15.0">
									<SimplePredicate field="aj_dif" operator="lessOrEqual" value="-10.5"/>
								</Node>
							</Node>
							<Node score="4.0">
								<SimplePredicate field="ol_vol" operator="lessOrEqual" value="242000.0"/>
								<Node score="5.0">
									<SimplePredicate field="ol_dif" operator="lessOrEqual" value="250.0"/>
								</Node>
							</Node>
							<Node score="76.0">
								<SimplePredicate field="dolar_itau" operator="lessOrEqual" value="9.00600004196167"/>
							</Node>
						</Node>
						<Node score="561.0">
							<SimplePredicate field="dolar_itau" operator="lessOrEqual" value="8.617500305175781"/>
							<Node score="36.25">
								<SimplePredicate field="dif_sem" operator="lessOrEqual" value="-322.8000030517578"/>
								<Node score="431.0">
									<SimplePredicate field="dif_sem" operator="lessOrEqual" value="-324.25"/>
									<Node score="52.0">
										<SimplePredicate field="aj_dif" operator="lessOrEqual" value="-0.45000000298023224"/>
										<Node score="489.0">
											<SimplePredicate field="dif_sem" operator="lessOrEqual" value="-328.1000061035156"/>
											<Node score="366.25">
												<SimplePredicate field="ol_dif" operator="lessOrEqual" value="7900.0"/>
											</Node>
										</Node>
										<Node score="342.2857142857143">
											<SimplePredicate field="ol_vol" operator="lessOrEqual" value="201950.0"/>
										</Node>
									</Node>
									<Node score="227.52380952380952">
										<SimplePredicate field="high" operator="lessOrEqual" value="80.0"/>
										<Node score="120.33333333333333">
											<SimplePredicate field="aj_dif" operator="lessOrEqual" value="1.100000023841858"/>
										</Node>
									</Node>
								</Node>
							</Node>
							<Node score="569.0">
								<SimplePredicate field="dolar_itau" operator="lessOrEqual" value="8.011499881744385"/>
								<Node score="40.0">
									<SimplePredicate field="dif_sem" operator="lessOrEqual" value="-309.75"/>
									<Node score="463.0">
										<SimplePredicate field="aj_dif" operator="lessOrEqual" value="2.549999952316284"/>
										<Node score="397.75">
											<SimplePredicate field="dif_sem" operator="lessOrEqual" value="-321.1999969482422"/>
										</Node>
									</Node>
									<Node score="154.0">
										<SimplePredicate field="dif_sem" operator="lessOrEqual" value="-312.1999969482422"/>
									</Node>
								</Node>
								<Node score="397.0">
									<SimplePredicate field="aj_dif" operator="lessOrEqual" value="-0.45000000298023224"/>
									<Node score="361.0">
										<SimplePredicate field="ol_dif" operator="lessOrEqual" value="2050.0"/>
									</Node>
								</Node>
							</Node>
							<Node score="426.3333333333333">
								<SimplePredicate field="ol_vol" operator="lessOrEqual" value="188650.0"/>
								<Node score="492.0">
									<SimplePredicate field="dolar_bn" operator="lessOrEqual" value="8.405499935150146"/>
									<Node score="422.6666666666667">
										<SimplePredicate field="ol_vol" operator="lessOrEqual" value="171200.0"/>
									</Node>
								</Node>
								<Node score="241.95">
									<SimplePredicate field="aj_dif" operator="lessOrEqual" value="1.8499999642372131"/>
								</Node>
							</Node>
							<Node score="19.75">
								<SimplePredicate field="aj_dif" operator="lessOrEqual" value="3.25"/>
								<Node score="152.0">
									<SimplePredicate field="ol_dif" operator="lessOrEqual" value="1150.0"/>
								</Node>
							</Node>
						</Node>
						<Node score="179.0">
							<SimplePredicate field="ol_dif" operator="lessOrEqual" value="750.0"/>
							<Node score="554.0">
								<SimplePredicate field="dif_sem" operator="lessOrEqual" value="-243.4499969482422"/>
							</Node>
							<Node score="63.0">
								<SimplePredicate field="dif_sem" operator="lessOrEqual" value="-240.75"/>
							</Node>
							<Node score="262.42857142857144">
								<SimplePredicate field="dif_sem" operator="lessOrEqual" value="-232.0999984741211"/>
								<Node score="310.0">
									<SimplePredicate field="dolar_itau" operator="lessOrEqual" value="9.153500080108643"/>
								</Node>
							</Node>
						</Node>
						<Node score="265.0">
							<SimplePredicate field="dolar_bn" operator="lessOrEqual" value="9.49399995803833"/>
							<Node score="27.0">
								<SimplePredicate field="dif_sem" operator="lessOrEqual" value="-233.25"/>
								<Node score="5.0">
									<SimplePredicate field="dif_sem" operator="lessOrEqual" value="-234.8000030517578"/>
								</Node>
							</Node>
							<Node score="95.22222222222223">
								<SimplePredicate field="ol_vol" operator="lessOrEqual" value="99850.0"/>
								<Node score="57.166666666666664">
									<SimplePredicate field="aj_dif" operator="lessOrEqual" value="-2.450000047683716"/>
								</Node>
							</Node>
							<Node score="146.28571428571428">
								<SimplePredicate field="dolar_bn" operator="lessOrEqual" value="9.026000022888184"/>
							</Node>
						</Node>
						<Node score="272.0">
							<SimplePredicate field="ol_vol" operator="lessOrEqual" value="136300.0"/>
							<Node score="89.5">
								<SimplePredicate field="dif_sem" operator="lessOrEqual" value="-232.0999984741211"/>
							</Node>
							<Node score="212.0">
								<SimplePredicate field="dolar_bn" operator="lessOrEqual" value="13.769999980926514"/>
							</Node>
						</Node>
						<Node score="159.0">
							<SimplePredicate field="dif_sem" operator="lessOrEqual" value="-249.4000015258789"/>
							<Node score="205.0">
								<SimplePredicate field="ol_vol" operator="lessOrEqual" value="201950.0"/>
							</Node>
						</Node>
					</Node>
				</TreeModel>
			</Segment>
			<Segment id="3">
				<True/>
				<TreeModel functionName="regression" missingValueStrategy="nullPrediction" noTrueChildStrategy="returnLastPrediction" splitCharacteristic="multiSplit">
					<MiningSchema>
						<MiningField name="open"/>
						<MiningField name="low"/>
						<MiningField name="aj_dif"/>
						<MiningField name="ol_vol"/>
						<MiningField name="ol_dif"/>
						<MiningField name="vol_ope"/>
						<MiningField name="dolar_bn"/>
						<MiningField name="dolar_itau"/>
						<MiningField name="dif_sem"/>
					</MiningSchema>
					<Node score="284.0">
						<True/>
						<Node score="328.0">
							<SimplePredicate field="dif_sem" operator="lessOrEqual" value="-361.25"/>
							<Node score="222.0">
								<SimplePredicate field="dolar_itau" operator="lessOrEqual" value="4.578999996185303"/>
								<Node score="175.0">
									<SimplePredicate field="dolar_bn" operator="lessOrEqual" value="3.1705000400543213"/>
								</Node>
								<Node score="324.0">
									<SimplePredicate field="dif_sem" operator="lessOrEqual" value="-383.5"/>
									<Node score="276.61538461538464">
										<SimplePredicate field="ol_vol" operator="lessOrEqual" value="50.0"/>
									</Node>
								</Node>
								<Node score="277.5">
									<SimplePredicate field="ol_vol" operator="lessOrEqual" value="50.0"/>
									<Node score="260.0">
										<SimplePredicate field="dif_sem" operator="lessOrEqual" value="-368.5"/>
										<Node score="175.0">
											<SimplePredicate field="dolar_itau" operator="lessOrEqual" value="3.9765000343322754"/>
										</Node>
										<Node score="230.66666666666666">
											<SimplePredicate field="dolar_itau" operator="lessOrEqual" value="4.01449990272522"/>
										</Node>
										<Node score="261.0">
											<SimplePredicate field="aj_dif" operator="lessOrEqual" value="-2.950000047683716"/>
											<Node score="260.0">
												<SimplePredicate field="aj_dif" operator="lessOrEqual" value="-4.900000095367432"/>
											</Node>
										</Node>
									</Node>
									<Node score="279.0">
										<SimplePredicate field="dolar_itau" operator="lessOrEqual" value="3.9765000343322754"/>
										<Node score="230.25">
											<SimplePredicate field="aj_dif" operator="lessOrEqual" value="10.25"/>
										</Node>
									</Node>
								</Node>
								<Node score="196.0">
									<SimplePredicate field="open" operator="lessOrEqual" value="80.0"/>
									<Node score="214.0">
										<SimplePredicate field="aj_dif" operator="lessOrEqual" value="-0.949999988079071"/>
									</Node>
								</Node>
							</Node>
							<Node score="224.0">
								<SimplePredicate field="aj_dif" operator="lessOrEqual" value="0.05000000074505806"/>
								<Node score="507.5">
									<SimplePredicate field="aj_dif" operator="lessOrEqual" value="-0.45000000298023224"/>
									<Node score="572.0">
										<SimplePredicate field="dif_sem" operator="lessOrEqual" value="-418.8500061035156"/>
										<Node score="370.9230769230769">
											<SimplePredicate field="aj_dif" operator="lessOrEqual" value="-1.449999988079071"/>
										</Node>
									</Node>
									<Node score="381.22222222222223">
										<SimplePredicate field="aj_dif" operator="lessOrEqual" value="-0.949999988079071"/>
										<Node score="239.88888888888889">
											<SimplePredicate field="dif_sem" operator="lessOrEqual" value="-399.5"/>
											<Node score="284.3333333333333">
												<SimplePredicate field="dolar_itau" operator="lessOrEqual" value="4.758500099182129"/>
												<Node score="320.1666666666667">
													<SimplePredicate field="dif_sem" operator="lessOrEqual" value="-408.25"/>
												</Node>
												<Node score="241.0">
													<SimplePredicate field="dolar_bn" operator="lessOrEqual" value="4.667999982833862"/>
												</Node>
											</Node>
										</Node>
										<Node score="220.42857142857142">
											<SimplePredicate field="aj_dif" operator="lessOrEqual" value="-3.649999976158142"/>
											<Node score="361.6666666666667">
												<SimplePredicate field="dolar_bn" operator="lessOrEqual" value="4.870000123977661"/>
											</Node>
											<Node score="307.0">
												<SimplePredicate field="dif_sem" operator="lessOrEqual" value="-383.5"/>
											</Node>
										</Node>
										<Node score="229.0">
											<SimplePredicate field="dolar_bn" operator="lessOrEqual" value="4.667999982833862"/>
										</Node>
										<Node score="514.0">
											<SimplePredicate field="dif_sem" operator="lessOrEqual" value="-383.5"/>
										</Node>
									</Node>
									<Node score="523.0">
										<SimplePredicate field="dolar_bn" operator="lessOrEqual" value="4.667999982833862"/>
									</Node>
								</Node>
								<Node score="220.0">
									<SimplePredicate field="dif_sem" operator="lessOrEqual" value="-383.5"/>
									<Node score="256.0">
										<SimplePredicate field="dolar_itau" operator="lessOrEqual" value="4.758500099182129"/>
									</Node>
									<Node score="354.0">
										<SimplePredicate field="dolar_bn" operator="lessOrEqual" value="4.870000123977661"/>
										<Node score="208.0">
											<SimplePredicate field="dif_sem" operator="lessOrEqual" value="-399.5"/>
											<Node score="310.0">
												<SimplePredicate field="dif_sem" operator="lessOrEqual" value="-408.25"/>
											</Node>
										</Node>
									</Node>
								</Node>
								<Node score="214.0">
									<SimplePredicate field="ol_dif" operator="lessOrEqual" value="-50.0"/>
								</Node>
							</Node>
							<Node score="389.4032258064516">
								<SimplePredicate field="dif_sem" operator="lessOrEqual" value="-368.5"/>
							</Node>
							<Node score="214.0">
								<SimplePredicate field="ol_dif" operator="lessOrEqual" value="-2750.0"/>
							</Node>
						</Node>
						<Node score="388.0">
							<SimplePredicate field="dolar_bn" operator="lessOrEqual" value="5.203500032424927"/>
							<Node score="147.91037735849056">
								<SimplePredicate field="dolar_bn" operator="lessOrEqual" value="4.045500040054321"/>
								<Node score="292.3170731707317">
									<SimplePredicate field="dolar_itau" operator="lessOrEqual" value="3.8704999685287476"/>
									<Node score="230.0">
										<SimplePredicate field="dif_sem" operator="lessOrEqual" value="-154.75"/>
										<Node score="97.92664092664093">
											<SimplePredicate field="dif_sem" operator="lessOrEqual" value="-173.25"/>
											<Node score="568.0">
												<SimplePredicate field="ol_dif" operator="lessOrEqual" value="-650.0"/>
												<Node score="53.0">
													<SimplePredicate field="dolar_itau" operator="lessOrEqual" value="3.7955000400543213"/>
													<Node score="78.0">
														<SimplePredicate field="ol_vol" operator="lessOrEqual" value="1950.0"/>
													</Node>
													<Node score="38.0">
														<SimplePredicate field="dolar_bn" operator="lessOrEqual" value="3.744499921798706"/>
													</Node>
												</Node>
											</Node>
											<Node score="451.0">
												<SimplePredicate field="dolar_bn" operator="lessOrEqual" value="3.1705000400543213"/>
												<Node score="70.72222222222223">
													<SimplePredicate field="vol_ope" operator="lessOrEqual" value="50.0"/>
													<Node score="119.48689655172414">
														<SimplePredicate field="ol_vol" operator="lessOrEqual" value="50.0"/>
													</Node>
												</Node>
											</Node>
											<Node score="98.41935483870968">
												<SimplePredicate field="dolar_bn" operator="lessOrEqual" value="3.387500047683716"/>
												<Node score="44.205882352941174">
													<SimplePredicate field="aj_dif" operator="lessOrEqual" value="-0.949999988079071"/>
												</Node>
											</Node>
											<Node score="81.10344827586206">
												<SimplePredicate field="dolar_itau" operator="lessOrEqual" value="3.5509999990463257"/>
											</Node>
										</Node>
										<Node score="159.625">
											<SimplePredicate field="ol_vol" operator="lessOrEqual" value="450.0"/>
											<Node score="567.0">
												<SimplePredicate field="dif_sem" operator="lessOrEqual" value="-164.75"/>
												<Node score="114.8">
													<SimplePredicate field="dolar_bn" operator="lessOrEqual" value="3.100499987602234"/>
													<Node score="27.806818181818183">
														<SimplePredicate field="dolar_itau" operator="lessOrEqual" value="3.093500018119812"/>
													</Node>
												</Node>
												<Node score="33.857142857142854">
													<SimplePredicate field="dif_sem" operator="lessOrEqual" value="-167.8499984741211"/>
												</Node>
											</Node>
											<Node score="155.1578947368421">
												<SimplePredicate field="aj_dif" operator="lessOrEqual" value="3.049999952316284"/>
												<Node score="105.10344827586206">
													<SimplePredicate field="dif_sem" operator="lessOrEqual" value="-160.75"/>
												</Node>
											</Node>
											<Node score="482.0">
												<SimplePredicate field="dolar_bn" operator="lessOrEqual" value="2.936500072479248"/>
											</Node>
										</Node>
										<Node score="149.66666666666666">
											<SimplePredicate field="aj_dif" operator="lessOrEqual" value="1.550000011920929"/>
											<Node score="125.0">
												<SimplePredicate field="dif_sem" operator="lessOrEqual" value="-158.25"/>
												<Node score="124.0">
													<SimplePredicate field="ol_dif" operator="lessOrEqual" value="-150.0"/>
												</Node>
											</Node>
										</Node>
									</Node>
								</Node>
							</Node>
							<Node score="88.0">
								<SimplePredicate field="dolar_itau" operator="lessOrEqual" value="4.0975000858306885"/>
								<Node score="50.55555555555556">
									<SimplePredicate field="aj_dif" operator="lessOrEqual" value="4.049999952316284"/>
									<Node score="38.05555555555556">
										<SimplePredicate field="dolar_bn" operator="lessOrEqual" value="4.083500146865845"/>
										<Node score="6.0">
											<SimplePredicate field="dolar_itau" operator="lessOrEqual" value="4.045500040054321"/>
										</Node>
										<Node score="2.0">
											<SimplePredicate field="dif_sem" operator="lessOrEqual" value="-318.5"/>
											<Node score="10.666666666666666">
												<SimplePredicate field="dolar_itau" operator="lessOrEqual" value="4.083500146865845"/>
												<Node score="22.0">
													<SimplePredicate field="aj_dif" operator="lessOrEqual" value="-0.949999988079071"/>
												</Node>
											</Node>
										</Node>
										<Node score="58.0">
											<SimplePredicate field="dif_sem" operator="lessOrEqual" value="-314.25"/>
										</Node>
									</Node>
									<Node score="12.4">
										<SimplePredicate field="dif_sem" operator="lessOrEqual" value="-318.5"/>
									</Node>
								</Node>
								<Node score="504.0">
									<SimplePredicate field="aj_dif" operator="lessOrEqual" value="5.25"/>
								</Node>
								<Node score="43.0">
									<SimplePredicate field="dolar_bn" operator="lessOrEqual" value="4.083500146865845"/>
								</Node>
							</Node>
							<Node score="9.68421052631579">
								<SimplePredicate field="dif_sem" operator="lessOrEqual" value="-316.75"/>
								<Node score="112.0919540229885">
									<SimplePredicate field="dif_sem" operator="lessOrEqual" value="-328.1000061035156"/>
								</Node>
								<Node score="39.0">
									<SimplePredicate field="dolar_bn" operator="lessOrEqual" value="4.245500087738037"/>
									<Node score="76.75">
										<SimplePredicate field="dif_sem" operator="lessOrEqual" value="-320.25"/>
										<Node score="15.0">
											<SimplePredicate field="dolar_bn" operator="lessOrEqual" value="4.204499959945679"/>
											<Node score="46.875">
												<SimplePredicate field="dif_sem" operator="lessOrEqual" value="-322.8000030517578"/>
											</Node>
										</Node>
										<Node score="43.0">
